digraph Tree {
node [shape=box, style="filled", color="black", fontname="helvetica"] ;
edge [fontname="helvetica"] ;
0 [label="horse power <= 0.298\nsquared_error = 0.008\nsamples = 2027\nvalue = 0.12", fillcolor="#fcf0e7"] ;
1 [label="horse power <= 0.167\nsquared_error = 0.002\nsamples = 1819\nvalue = 0.1", fillcolor="#fcf2eb"] ;
0 -> 1 [labeldistance=2.5, labelangle=45, headlabel="True"] ;
2 [label="engine volume <= 0.232\nsquared_error = 0.001\nsamples = 729\nvalue = 0.072", fillcolor="#fdf6f1"] ;
1 -> 2 ;
3 [label="engine volume <= 0.178\nsquared_error = 0.0\nsamples = 526\nvalue = 0.065", fillcolor="#fdf7f2"] ;
2 -> 3 ;
4 [label="year <= 1.5\nsquared_error = 0.0\nsamples = 165\nvalue = 0.082", fillcolor="#fdf5ef"] ;
3 -> 4 ;
5 [label="horse power <= 0.119\nsquared_error = 0.001\nsamples = 9\nvalue = 0.129", fillcolor="#fcefe6"] ;
4 -> 5 ;
6 [label="engine volume <= 0.081\nsquared_error = 0.0\nsamples = 2\nvalue = 0.101", fillcolor="#fcf2eb"] ;
5 -> 6 ;
7 [label="squared_error = -0.0\nsamples = 1\nvalue = 0.106", fillcolor="#fcf2ea"] ;
6 -> 7 ;
8 [label="squared_error = 0.0\nsamples = 1\nvalue = 0.096", fillcolor="#fdf3ec"] ;
6 -> 8 ;
9 [label="km <= 0.013\nsquared_error = 0.0\nsamples = 7\nvalue = 0.143", fillcolor="#fbede3"] ;
5 -> 9 ;
10 [label="gas <= 3.5\nsquared_error = 0.0\nsamples = 4\nvalue = 0.153", fillcolor="#fbece1"] ;
9 -> 10 ;
11 [label="squared_error = 0.0\nsamples = 1\nvalue = 0.168", fillcolor="#fbeade"] ;
10 -> 11 ;
12 [label="horse power <= 0.141\nsquared_error = 0.0\nsamples = 3\nvalue = 0.138", fillcolor="#fbeee4"] ;
10 -> 12 ;
13 [label="squared_error = 0.0\nsamples = 1\nvalue = 0.113", fillcolor="#fcf1e9"] ;
12 -> 13 ;
14 [label="current owner <= 4.0\nsquared_error = 0.0\nsamples = 2\nvalue = 0.147", fillcolor="#fbede2"] ;
12 -> 14 ;
15 [label="squared_error = 0.0\nsamples = 1\nvalue = 0.152", fillcolor="#fbece1"] ;
14 -> 15 ;
16 [label="squared_error = -0.0\nsamples = 1\nvalue = 0.144", fillcolor="#fbede3"] ;
14 -> 16 ;
17 [label="engine volume <= 0.081\nsquared_error = 0.0\nsamples = 3\nvalue = 0.122", fillcolor="#fcf0e7"] ;
9 -> 17 ;
18 [label="squared_error = 0.0\nsamples = 1\nvalue = 0.134", fillcolor="#fceee4"] ;
17 -> 18 ;
19 [label="km <= 0.02\nsquared_error = 0.0\nsamples = 2\nvalue = 0.109", fillcolor="#fcf1e9"] ;
17 -> 19 ;
20 [label="squared_error = 0.0\nsamples = 1\nvalue = 0.105", fillcolor="#fcf2ea"] ;
19 -> 20 ;
21 [label="squared_error = 0.0\nsamples = 1\nvalue = 0.113", fillcolor="#fcf1e9"] ;
19 -> 21 ;
22 [label="year <= 5.5\nsquared_error = 0.0\nsamples = 156\nvalue = 0.078", fillcolor="#fdf5ef"] ;
4 -> 22 ;
23 [label="horse power <= 0.12\nsquared_error = 0.0\nsamples = 150\nvalue = 0.08", fillcolor="#fdf5ef"] ;
22 -> 23 ;
24 [label="gas <= 3.5\nsquared_error = 0.0\nsamples = 25\nvalue = 0.068", fillcolor="#fdf6f2"] ;
23 -> 24 ;
25 [label="km <= 0.123\nsquared_error = 0.0\nsamples = 23\nvalue = 0.063", fillcolor="#fdf7f3"] ;
24 -> 25 ;
26 [label="km <= 0.068\nsquared_error = 0.0\nsamples = 7\nvalue = 0.074", fillcolor="#fdf6f0"] ;
25 -> 26 ;
27 [label="engine volume <= 0.154\nsquared_error = 0.0\nsamples = 2\nvalue = 0.08", fillcolor="#fdf5ef"] ;
26 -> 27 ;
28 [label="squared_error = 0.0\nsamples = 1\nvalue = 0.068", fillcolor="#fdf6f2"] ;
27 -> 28 ;
29 [label="squared_error = 0.0\nsamples = 1\nvalue = 0.105", fillcolor="#fcf2ea"] ;
27 -> 29 ;
30 [label="km <= 0.111\nsquared_error = 0.0\nsamples = 5\nvalue = 0.072", fillcolor="#fdf6f1"] ;
26 -> 30 ;
31 [label="km <= 0.108\nsquared_error = 0.0\nsamples = 3\nvalue = 0.071", fillcolor="#fdf6f1"] ;
30 -> 31 ;
32 [label="engine volume <= 0.162\nsquared_error = 0.0\nsamples = 2\nvalue = 0.071", fillcolor="#fdf6f1"] ;
31 -> 32 ;
33 [label="squared_error = 0.0\nsamples = 1\nvalue = 0.071", fillcolor="#fdf6f1"] ;
32 -> 33 ;
34 [label="squared_error = 0.0\nsamples = 1\nvalue = 0.071", fillcolor="#fdf6f1"] ;
32 -> 34 ;
35 [label="squared_error = -0.0\nsamples = 1\nvalue = 0.071", fillcolor="#fdf6f1"] ;
31 -> 35 ;
36 [label="squared_error = 0.0\nsamples = 2\nvalue = 0.073", fillcolor="#fdf6f1"] ;
30 -> 36 ;
37 [label="horse power <= 0.081\nsquared_error = 0.0\nsamples = 16\nvalue = 0.059", fillcolor="#fdf8f3"] ;
25 -> 37 ;
38 [label="km <= 0.139\nsquared_error = 0.0\nsamples = 2\nvalue = 0.043", fillcolor="#fefaf6"] ;
37 -> 38 ;
39 [label="squared_error = 0.0\nsamples = 1\nvalue = 0.047", fillcolor="#fef9f6"] ;
38 -> 39 ;
40 [label="squared_error = 0.0\nsamples = 1\nvalue = 0.041", fillcolor="#fefaf7"] ;
38 -> 40 ;
41 [label="km <= 0.214\nsquared_error = 0.0\nsamples = 14\nvalue = 0.061", fillcolor="#fdf7f3"] ;
37 -> 41 ;
42 [label="km <= 0.174\nsquared_error = 0.0\nsamples = 8\nvalue = 0.065", fillcolor="#fdf7f2"] ;
41 -> 42 ;
43 [label="horse power <= 0.11\nsquared_error = 0.0\nsamples = 5\nvalue = 0.061", fillcolor="#fdf7f3"] ;
42 -> 43 ;
44 [label="current owner <= 1.5\nsquared_error = 0.0\nsamples = 4\nvalue = 0.062", fillcolor="#fdf7f3"] ;
43 -> 44 ;
45 [label="km <= 0.153\nsquared_error = 0.0\nsamples = 2\nvalue = 0.061", fillcolor="#fdf7f3"] ;
44 -> 45 ;
46 [label="squared_error = 0.0\nsamples = 1\nvalue = 0.062", fillcolor="#fdf7f3"] ;
45 -> 46 ;
47 [label="squared_error = -0.0\nsamples = 1\nvalue = 0.06", fillcolor="#fdf7f3"] ;
45 -> 47 ;
48 [label="engine volume <= 0.162\nsquared_error = 0.0\nsamples = 2\nvalue = 0.063", fillcolor="#fdf7f2"] ;
44 -> 48 ;
49 [label="squared_error = 0.0\nsamples = 1\nvalue = 0.067", fillcolor="#fdf7f2"] ;
48 -> 49 ;
50 [label="squared_error = -0.0\nsamples = 1\nvalue = 0.062", fillcolor="#fdf7f3"] ;
48 -> 50 ;
51 [label="squared_error = 0.0\nsamples = 1\nvalue = 0.056", fillcolor="#fef8f4"] ;
43 -> 51 ;
52 [label="km <= 0.201\nsquared_error = 0.0\nsamples = 3\nvalue = 0.071", fillcolor="#fdf6f1"] ;
42 -> 52 ;
53 [label="km <= 0.189\nsquared_error = 0.0\nsamples = 2\nvalue = 0.069", fillcolor="#fdf6f1"] ;
52 -> 53 ;
54 [label="squared_error = 0.0\nsamples = 1\nvalue = 0.071", fillcolor="#fdf6f1"] ;
53 -> 54 ;
55 [label="squared_error = -0.0\nsamples = 1\nvalue = 0.067", fillcolor="#fdf7f2"] ;
53 -> 55 ;
56 [label="squared_error = 0.0\nsamples = 1\nvalue = 0.082", fillcolor="#fdf5ef"] ;
52 -> 56 ;
57 [label="km <= 0.25\nsquared_error = 0.0\nsamples = 6\nvalue = 0.054", fillcolor="#fef8f4"] ;
41 -> 57 ;
58 [label="km <= 0.242\nsquared_error = 0.0\nsamples = 5\nvalue = 0.054", fillcolor="#fef8f4"] ;
57 -> 58 ;
59 [label="km <= 0.23\nsquared_error = 0.0\nsamples = 3\nvalue = 0.055", fillcolor="#fef8f4"] ;
58 -> 59 ;
60 [label="year <= 3.0\nsquared_error = 0.0\nsamples = 2\nvalue = 0.056", fillcolor="#fef8f4"] ;
59 -> 60 ;
61 [label="squared_error = 0.0\nsamples = 1\nvalue = 0.056", fillcolor="#fef8f4"] ;
60 -> 61 ;
62 [label="squared_error = -0.0\nsamples = 1\nvalue = 0.055", fillcolor="#fef8f4"] ;
60 -> 62 ;
63 [label="squared_error = 0.0\nsamples = 1\nvalue = 0.055", fillcolor="#fef8f4"] ;
59 -> 63 ;
64 [label="km <= 0.248\nsquared_error = 0.0\nsamples = 2\nvalue = 0.054", fillcolor="#fef8f4"] ;
58 -> 64 ;
65 [label="squared_error = 0.0\nsamples = 1\nvalue = 0.053", fillcolor="#fef8f4"] ;
64 -> 65 ;
66 [label="squared_error = 0.0\nsamples = 1\nvalue = 0.054", fillcolor="#fef8f4"] ;
64 -> 66 ;
67 [label="squared_error = -0.0\nsamples = 1\nvalue = 0.051", fillcolor="#fef9f5"] ;
57 -> 67 ;
68 [label="km <= 0.034\nsquared_error = 0.0\nsamples = 2\nvalue = 0.117", fillcolor="#fcf0e8"] ;
24 -> 68 ;
69 [label="squared_error = 0.0\nsamples = 1\nvalue = 0.106", fillcolor="#fcf2ea"] ;
68 -> 69 ;
70 [label="squared_error = 0.0\nsamples = 1\nvalue = 0.127", fillcolor="#fcefe6"] ;
68 -> 70 ;
71 [label="km <= 0.163\nsquared_error = 0.0\nsamples = 125\nvalue = 0.082", fillcolor="#fdf5ef"] ;
23 -> 71 ;
72 [label="horse power <= 0.135\nsquared_error = 0.0\nsamples = 63\nvalue = 0.086", fillcolor="#fdf4ee"] ;
71 -> 72 ;
73 [label="km <= 0.117\nsquared_error = 0.0\nsamples = 4\nvalue = 0.097", fillcolor="#fcf3ec"] ;
72 -> 73 ;
74 [label="km <= 0.071\nsquared_error = 0.0\nsamples = 3\nvalue = 0.097", fillcolor="#fcf3ec"] ;
73 -> 74 ;
75 [label="squared_error = 0.0\nsamples = 1\nvalue = 0.098", fillcolor="#fcf3ec"] ;
74 -> 75 ;
76 [label="year <= 2.5\nsquared_error = 0.0\nsamples = 2\nvalue = 0.097", fillcolor="#fcf3ec"] ;
74 -> 76 ;
77 [label="squared_error = 0.0\nsamples = 1\nvalue = 0.097", fillcolor="#fcf3ec"] ;
76 -> 77 ;
78 [label="squared_error = 0.0\nsamples = 1\nvalue = 0.097", fillcolor="#fcf3ec"] ;
76 -> 78 ;
79 [label="squared_error = 0.0\nsamples = 1\nvalue = 0.095", fillcolor="#fdf3ec"] ;
73 -> 79 ;
80 [label="current owner <= 2.5\nsquared_error = 0.0\nsamples = 59\nvalue = 0.085", fillcolor="#fdf4ee"] ;
72 -> 80 ;
81 [label="current owner <= 1.5\nsquared_error = 0.0\nsamples = 33\nvalue = 0.082", fillcolor="#fdf5ef"] ;
80 -> 81 ;
82 [label="km <= 0.144\nsquared_error = 0.0\nsamples = 8\nvalue = 0.09", fillcolor="#fdf4ed"] ;
81 -> 82 ;
83 [label="year <= 3.5\nsquared_error = 0.0\nsamples = 7\nvalue = 0.092", fillcolor="#fdf3ed"] ;
82 -> 83 ;
84 [label="hand <= 0.214\nsquared_error = 0.0\nsamples = 6\nvalue = 0.093", fillcolor="#fdf3ed"] ;
83 -> 84 ;
85 [label="engine volume <= 0.162\nsquared_error = 0.0\nsamples = 5\nvalue = 0.094", fillcolor="#fdf3ec"] ;
84 -> 85 ;
86 [label="km <= 0.087\nsquared_error = 0.0\nsamples = 3\nvalue = 0.095", fillcolor="#fdf3ec"] ;
85 -> 86 ;
87 [label="squared_error = 0.0\nsamples = 1\nvalue = 0.096", fillcolor="#fdf3ec"] ;
86 -> 87 ;
88 [label="km <= 0.132\nsquared_error = 0.0\nsamples = 2\nvalue = 0.095", fillcolor="#fdf3ec"] ;
86 -> 88 ;
89 [label="squared_error = 0.0\nsamples = 1\nvalue = 0.093", fillcolor="#fdf3ed"] ;
88 -> 89 ;
90 [label="squared_error = 0.0\nsamples = 1\nvalue = 0.096", fillcolor="#fdf3ec"] ;
88 -> 90 ;
91 [label="km <= 0.102\nsquared_error = 0.0\nsamples = 2\nvalue = 0.093", fillcolor="#fdf3ed"] ;
85 -> 91 ;
92 [label="squared_error = 0.0\nsamples = 1\nvalue = 0.093", fillcolor="#fdf3ed"] ;
91 -> 92 ;
93 [label="squared_error = 0.0\nsamples = 1\nvalue = 0.093", fillcolor="#fdf3ed"] ;
91 -> 93 ;
94 [label="squared_error = 0.0\nsamples = 1\nvalue = 0.089", fillcolor="#fdf4ed"] ;
84 -> 94 ;
95 [label="squared_error = -0.0\nsamples = 1\nvalue = 0.08", fillcolor="#fdf5ef"] ;
83 -> 95 ;
96 [label="squared_error = -0.0\nsamples = 1\nvalue = 0.079", fillcolor="#fdf5ef"] ;
82 -> 96 ;
97 [label="km <= 0.116\nsquared_error = 0.0\nsamples = 25\nvalue = 0.08", fillcolor="#fdf5ef"] ;
81 -> 97 ;
98 [label="km <= 0.115\nsquared_error = 0.0\nsamples = 12\nvalue = 0.083", fillcolor="#fdf5ef"] ;
97 -> 98 ;
99 [label="year <= 3.5\nsquared_error = 0.0\nsamples = 11\nvalue = 0.082", fillcolor="#fdf5ef"] ;
98 -> 99 ;
100 [label="km <= 0.089\nsquared_error = 0.0\nsamples = 9\nvalue = 0.083", fillcolor="#fdf5ef"] ;
99 -> 100 ;
101 [label="squared_error = 0.0\nsamples = 1\nvalue = 0.085", fillcolor="#fdf4ee"] ;
100 -> 101 ;
102 [label="km <= 0.114\nsquared_error = 0.0\nsamples = 8\nvalue = 0.082", fillcolor="#fdf5ef"] ;
100 -> 102 ;
103 [label="km <= 0.113\nsquared_error = 0.0\nsamples = 7\nvalue = 0.083", fillcolor="#fdf5ef"] ;
102 -> 103 ;
104 [label="km <= 0.111\nsquared_error = 0.0\nsamples = 4\nvalue = 0.081", fillcolor="#fdf5ef"] ;
103 -> 104 ;
105 [label="horse power <= 0.143\nsquared_error = 0.0\nsamples = 2\nvalue = 0.082", fillcolor="#fdf5ef"] ;
104 -> 105 ;
106 [label="squared_error = 0.0\nsamples = 1\nvalue = 0.082", fillcolor="#fdf5ef"] ;
105 -> 106 ;
107 [label="squared_error = 0.0\nsamples = 1\nvalue = 0.082", fillcolor="#fdf5ef"] ;
105 -> 107 ;
108 [label="km <= 0.112\nsquared_error = 0.0\nsamples = 2\nvalue = 0.08", fillcolor="#fdf5ef"] ;
104 -> 108 ;
109 [label="squared_error = 0.0\nsamples = 1\nvalue = 0.078", fillcolor="#fdf5ef"] ;
108 -> 109 ;
110 [label="squared_error = -0.0\nsamples = 1\nvalue = 0.083", fillcolor="#fdf5ef"] ;
108 -> 110 ;
111 [label="horse power <= 0.143\nsquared_error = 0.0\nsamples = 3\nvalue = 0.084", fillcolor="#fdf4ee"] ;
103 -> 111 ;
112 [label="km <= 0.113\nsquared_error = 0.0\nsamples = 2\nvalue = 0.085", fillcolor="#fdf4ee"] ;
111 -> 112 ;
113 [label="squared_error = 0.0\nsamples = 1\nvalue = 0.085", fillcolor="#fdf4ee"] ;
112 -> 113 ;
114 [label="squared_error = 0.0\nsamples = 1\nvalue = 0.084", fillcolor="#fdf4ee"] ;
112 -> 114 ;
115 [label="squared_error = 0.0\nsamples = 1\nvalue = 0.084", fillcolor="#fdf4ee"] ;
111 -> 115 ;
116 [label="squared_error = -0.0\nsamples = 1\nvalue = 0.08", fillcolor="#fdf5ef"] ;
102 -> 116 ;
117 [label="engine volume <= 0.162\nsquared_error = 0.0\nsamples = 2\nvalue = 0.078", fillcolor="#fdf5f0"] ;
99 -> 117 ;
118 [label="squared_error = 0.0\nsamples = 1\nvalue = 0.076", fillcolor="#fdf5f0"] ;
117 -> 118 ;
119 [label="squared_error = 0.0\nsamples = 1\nvalue = 0.082", fillcolor="#fdf5ef"] ;
117 -> 119 ;
120 [label="squared_error = -0.0\nsamples = 1\nvalue = 0.089", fillcolor="#fdf4ed"] ;
98 -> 120 ;
121 [label="km <= 0.12\nsquared_error = 0.0\nsamples = 13\nvalue = 0.076", fillcolor="#fdf5f0"] ;
97 -> 121 ;
122 [label="squared_error = 0.0\nsamples = 1\nvalue = 0.052", fillcolor="#fef8f5"] ;
121 -> 122 ;
123 [label="km <= 0.131\nsquared_error = 0.0\nsamples = 12\nvalue = 0.08", fillcolor="#fdf5ef"] ;
121 -> 123 ;
124 [label="km <= 0.125\nsquared_error = 0.0\nsamples = 2\nvalue = 0.07", fillcolor="#fdf6f1"] ;
123 -> 124 ;
125 [label="squared_error = 0.0\nsamples = 1\nvalue = 0.069", fillcolor="#fdf6f1"] ;
124 -> 125 ;
126 [label="squared_error = 0.0\nsamples = 1\nvalue = 0.074", fillcolor="#fdf6f0"] ;
124 -> 126 ;
127 [label="km <= 0.158\nsquared_error = 0.0\nsamples = 10\nvalue = 0.083", fillcolor="#fdf5ef"] ;
123 -> 127 ;
128 [label="km <= 0.149\nsquared_error = 0.0\nsamples = 8\nvalue = 0.081", fillcolor="#fdf5ef"] ;
127 -> 128 ;
129 [label="km <= 0.148\nsquared_error = 0.0\nsamples = 6\nvalue = 0.085", fillcolor="#fdf4ee"] ;
128 -> 129 ;
130 [label="km <= 0.14\nsquared_error = 0.0\nsamples = 5\nvalue = 0.084", fillcolor="#fdf4ee"] ;
129 -> 130 ;
131 [label="km <= 0.135\nsquared_error = 0.0\nsamples = 3\nvalue = 0.085", fillcolor="#fdf4ee"] ;
130 -> 131 ;
132 [label="year <= 3.5\nsquared_error = 0.0\nsamples = 2\nvalue = 0.085", fillcolor="#fdf4ee"] ;
131 -> 132 ;
133 [label="squared_error = 0.0\nsamples = 1\nvalue = 0.085", fillcolor="#fdf4ee"] ;
132 -> 133 ;
134 [label="squared_error = -0.0\nsamples = 1\nvalue = 0.085", fillcolor="#fdf4ee"] ;
132 -> 134 ;
135 [label="squared_error = -0.0\nsamples = 1\nvalue = 0.085", fillcolor="#fdf4ee"] ;
131 -> 135 ;
136 [label="km <= 0.146\nsquared_error = 0.0\nsamples = 2\nvalue = 0.083", fillcolor="#fdf5ef"] ;
130 -> 136 ;
137 [label="squared_error = 0.0\nsamples = 1\nvalue = 0.083", fillcolor="#fdf5ef"] ;
136 -> 137 ;
138 [label="squared_error = 0.0\nsamples = 1\nvalue = 0.083", fillcolor="#fdf5ef"] ;
136 -> 138 ;
139 [label="squared_error = 0.0\nsamples = 1\nvalue = 0.089", fillcolor="#fdf4ed"] ;
129 -> 139 ;
140 [label="km <= 0.152\nsquared_error = 0.0\nsamples = 2\nvalue = 0.071", fillcolor="#fdf6f1"] ;
128 -> 140 ;
141 [label="squared_error = 0.0\nsamples = 1\nvalue = 0.075", fillcolor="#fdf6f0"] ;
140 -> 141 ;
142 [label="squared_error = 0.0\nsamples = 1\nvalue = 0.069", fillcolor="#fdf6f1"] ;
140 -> 142 ;
143 [label="km <= 0.162\nsquared_error = 0.0\nsamples = 2\nvalue = 0.09", fillcolor="#fdf4ed"] ;
127 -> 143 ;
144 [label="squared_error = 0.0\nsamples = 1\nvalue = 0.087", fillcolor="#fdf4ee"] ;
143 -> 144 ;
145 [label="squared_error = 0.0\nsamples = 1\nvalue = 0.093", fillcolor="#fdf3ed"] ;
143 -> 145 ;
146 [label="km <= 0.053\nsquared_error = 0.0\nsamples = 26\nvalue = 0.089", fillcolor="#fdf4ed"] ;
80 -> 146 ;
147 [label="squared_error = 0.0\nsamples = 1\nvalue = 0.075", fillcolor="#fdf6f0"] ;
146 -> 147 ;
148 [label="year <= 4.5\nsquared_error = 0.0\nsamples = 25\nvalue = 0.091", fillcolor="#fdf4ed"] ;
146 -> 148 ;
149 [label="km <= 0.094\nsquared_error = 0.0\nsamples = 21\nvalue = 0.093", fillcolor="#fdf3ed"] ;
148 -> 149 ;
150 [label="km <= 0.06\nsquared_error = 0.0\nsamples = 5\nvalue = 0.099", fillcolor="#fcf3eb"] ;
149 -> 150 ;
151 [label="squared_error = 0.0\nsamples = 1\nvalue = 0.085", fillcolor="#fdf4ee"] ;
150 -> 151 ;
152 [label="year <= 3.5\nsquared_error = 0.0\nsamples = 4\nvalue = 0.101", fillcolor="#fcf2eb"] ;
150 -> 152 ;
153 [label="km <= 0.069\nsquared_error = 0.0\nsamples = 3\nvalue = 0.1", fillcolor="#fcf2eb"] ;
152 -> 153 ;
154 [label="squared_error = 0.0\nsamples = 1\nvalue = 0.101", fillcolor="#fcf2eb"] ;
153 -> 154 ;
155 [label="current owner <= 4.0\nsquared_error = 0.0\nsamples = 2\nvalue = 0.1", fillcolor="#fcf2eb"] ;
153 -> 155 ;
156 [label="squared_error = 0.0\nsamples = 1\nvalue = 0.1", fillcolor="#fcf2eb"] ;
155 -> 156 ;
157 [label="squared_error = 0.0\nsamples = 1\nvalue = 0.098", fillcolor="#fcf3ec"] ;
155 -> 157 ;
158 [label="squared_error = 0.0\nsamples = 1\nvalue = 0.102", fillcolor="#fcf2eb"] ;
152 -> 158 ;
159 [label="hand <= 0.214\nsquared_error = 0.0\nsamples = 16\nvalue = 0.091", fillcolor="#fdf4ed"] ;
149 -> 159 ;
160 [label="current owner <= 3.5\nsquared_error = 0.0\nsamples = 14\nvalue = 0.09", fillcolor="#fdf4ed"] ;
159 -> 160 ;
161 [label="year <= 3.5\nsquared_error = 0.0\nsamples = 9\nvalue = 0.092", fillcolor="#fdf3ed"] ;
160 -> 161 ;
162 [label="km <= 0.11\nsquared_error = 0.0\nsamples = 4\nvalue = 0.089", fillcolor="#fdf4ed"] ;
161 -> 162 ;
163 [label="squared_error = 0.0\nsamples = 1\nvalue = 0.095", fillcolor="#fdf3ec"] ;
162 -> 163 ;
164 [label="km <= 0.134\nsquared_error = 0.0\nsamples = 3\nvalue = 0.088", fillcolor="#fdf4ee"] ;
162 -> 164 ;
165 [label="squared_error = 0.0\nsamples = 1\nvalue = 0.086", fillcolor="#fdf4ee"] ;
164 -> 165 ;
166 [label="km <= 0.16\nsquared_error = 0.0\nsamples = 2\nvalue = 0.09", fillcolor="#fdf4ed"] ;
164 -> 166 ;
167 [label="squared_error = 0.0\nsamples = 1\nvalue = 0.09", fillcolor="#fdf4ed"] ;
166 -> 167 ;
168 [label="squared_error = 0.0\nsamples = 1\nvalue = 0.09", fillcolor="#fdf4ed"] ;
166 -> 168 ;
169 [label="horse power <= 0.143\nsquared_error = 0.0\nsamples = 5\nvalue = 0.095", fillcolor="#fdf3ec"] ;
161 -> 169 ;
170 [label="km <= 0.147\nsquared_error = 0.0\nsamples = 4\nvalue = 0.098", fillcolor="#fcf3ec"] ;
169 -> 170 ;
171 [label="km <= 0.126\nsquared_error = 0.0\nsamples = 2\nvalue = 0.095", fillcolor="#fdf3ec"] ;
170 -> 171 ;
172 [label="squared_error = 0.0\nsamples = 1\nvalue = 0.098", fillcolor="#fcf3ec"] ;
171 -> 172 ;
173 [label="squared_error = 0.0\nsamples = 1\nvalue = 0.092", fillcolor="#fdf3ed"] ;
171 -> 173 ;
174 [label="km <= 0.154\nsquared_error = 0.0\nsamples = 2\nvalue = 0.1", fillcolor="#fcf2eb"] ;
170 -> 174 ;
175 [label="squared_error = 0.0\nsamples = 1\nvalue = 0.099", fillcolor="#fcf2eb"] ;
174 -> 175 ;
176 [label="squared_error = -0.0\nsamples = 1\nvalue = 0.101", fillcolor="#fcf2eb"] ;
174 -> 176 ;
177 [label="squared_error = 0.0\nsamples = 1\nvalue = 0.084", fillcolor="#fdf4ee"] ;
169 -> 177 ;
178 [label="current owner <= 4.5\nsquared_error = 0.0\nsamples = 5\nvalue = 0.084", fillcolor="#fdf4ee"] ;
160 -> 178 ;
179 [label="squared_error = 0.0\nsamples = 1\nvalue = 0.064", fillcolor="#fdf7f2"] ;
178 -> 179 ;
180 [label="km <= 0.132\nsquared_error = 0.0\nsamples = 4\nvalue = 0.087", fillcolor="#fdf4ee"] ;
178 -> 180 ;
181 [label="km <= 0.109\nsquared_error = 0.0\nsamples = 2\nvalue = 0.084", fillcolor="#fdf4ee"] ;
180 -> 181 ;
182 [label="squared_error = 0.0\nsamples = 1\nvalue = 0.083", fillcolor="#fdf5ef"] ;
181 -> 182 ;
183 [label="squared_error = 0.0\nsamples = 1\nvalue = 0.086", fillcolor="#fdf4ee"] ;
181 -> 183 ;
184 [label="km <= 0.153\nsquared_error = 0.0\nsamples = 2\nvalue = 0.091", fillcolor="#fdf4ed"] ;
180 -> 184 ;
185 [label="squared_error = 0.0\nsamples = 1\nvalue = 0.093", fillcolor="#fdf3ed"] ;
184 -> 185 ;
186 [label="squared_error = -0.0\nsamples = 1\nvalue = 0.086", fillcolor="#fdf4ee"] ;
184 -> 186 ;
187 [label="horse power <= 0.139\nsquared_error = 0.0\nsamples = 2\nvalue = 0.1", fillcolor="#fcf2eb"] ;
159 -> 187 ;
188 [label="squared_error = 0.0\nsamples = 1\nvalue = 0.084", fillcolor="#fdf4ee"] ;
187 -> 188 ;
189 [label="squared_error = -0.0\nsamples = 1\nvalue = 0.116", fillcolor="#fcf0e8"] ;
187 -> 189 ;
190 [label="engine volume <= 0.161\nsquared_error = 0.0\nsamples = 4\nvalue = 0.075", fillcolor="#fdf6f0"] ;
148 -> 190 ;
191 [label="squared_error = 0.0\nsamples = 1\nvalue = 0.066", fillcolor="#fdf7f2"] ;
190 -> 191 ;
192 [label="km <= 0.076\nsquared_error = 0.0\nsamples = 3\nvalue = 0.078", fillcolor="#fdf5f0"] ;
190 -> 192 ;
193 [label="squared_error = 0.0\nsamples = 1\nvalue = 0.068", fillcolor="#fdf6f2"] ;
192 -> 193 ;
194 [label="km <= 0.117\nsquared_error = 0.0\nsamples = 2\nvalue = 0.083", fillcolor="#fdf5ef"] ;
192 -> 194 ;
195 [label="squared_error = 0.0\nsamples = 1\nvalue = 0.084", fillcolor="#fdf4ee"] ;
194 -> 195 ;
196 [label="squared_error = 0.0\nsamples = 1\nvalue = 0.081", fillcolor="#fdf5ef"] ;
194 -> 196 ;
197 [label="current owner <= 4.5\nsquared_error = 0.0\nsamples = 62\nvalue = 0.078", fillcolor="#fdf5f0"] ;
71 -> 197 ;
198 [label="year <= 4.5\nsquared_error = 0.0\nsamples = 58\nvalue = 0.077", fillcolor="#fdf5f0"] ;
197 -> 198 ;
199 [label="current owner <= 2.5\nsquared_error = 0.0\nsamples = 53\nvalue = 0.078", fillcolor="#fdf5f0"] ;
198 -> 199 ;
200 [label="km <= 0.203\nsquared_error = 0.0\nsamples = 46\nvalue = 0.076", fillcolor="#fdf5f0"] ;
199 -> 200 ;
201 [label="current owner <= 1.5\nsquared_error = 0.0\nsamples = 13\nvalue = 0.08", fillcolor="#fdf5ef"] ;
200 -> 201 ;
202 [label="km <= 0.182\nsquared_error = 0.0\nsamples = 3\nvalue = 0.094", fillcolor="#fdf3ec"] ;
201 -> 202 ;
203 [label="squared_error = 0.0\nsamples = 1\nvalue = 0.075", fillcolor="#fdf6f0"] ;
202 -> 203 ;
204 [label="km <= 0.197\nsquared_error = 0.0\nsamples = 2\nvalue = 0.1", fillcolor="#fcf2eb"] ;
202 -> 204 ;
205 [label="squared_error = 0.0\nsamples = 1\nvalue = 0.101", fillcolor="#fcf2eb"] ;
204 -> 205 ;
206 [label="squared_error = -0.0\nsamples = 1\nvalue = 0.099", fillcolor="#fcf2eb"] ;
204 -> 206 ;
207 [label="km <= 0.2\nsquared_error = 0.0\nsamples = 10\nvalue = 0.076", fillcolor="#fdf5f0"] ;
201 -> 207 ;
208 [label="year <= 3.5\nsquared_error = 0.0\nsamples = 9\nvalue = 0.074", fillcolor="#fdf6f0"] ;
207 -> 208 ;
209 [label="km <= 0.197\nsquared_error = 0.0\nsamples = 7\nvalue = 0.075", fillcolor="#fdf6f0"] ;
208 -> 209 ;
210 [label="km <= 0.194\nsquared_error = 0.0\nsamples = 6\nvalue = 0.076", fillcolor="#fdf5f0"] ;
209 -> 210 ;
211 [label="km <= 0.168\nsquared_error = 0.0\nsamples = 5\nvalue = 0.075", fillcolor="#fdf6f0"] ;
210 -> 211 ;
212 [label="km <= 0.164\nsquared_error = 0.0\nsamples = 2\nvalue = 0.077", fillcolor="#fdf5f0"] ;
211 -> 212 ;
213 [label="squared_error = 0.0\nsamples = 1\nvalue = 0.074", fillcolor="#fdf6f0"] ;
212 -> 213 ;
214 [label="squared_error = 0.0\nsamples = 1\nvalue = 0.079", fillcolor="#fdf5ef"] ;
212 -> 214 ;
215 [label="km <= 0.172\nsquared_error = 0.0\nsamples = 3\nvalue = 0.074", fillcolor="#fdf6f0"] ;
211 -> 215 ;
216 [label="squared_error = 0.0\nsamples = 1\nvalue = 0.073", fillcolor="#fdf6f1"] ;
215 -> 216 ;
217 [label="km <= 0.183\nsquared_error = 0.0\nsamples = 2\nvalue = 0.075", fillcolor="#fdf6f0"] ;
215 -> 217 ;
218 [label="squared_error = 0.0\nsamples = 1\nvalue = 0.075", fillcolor="#fdf6f0"] ;
217 -> 218 ;
219 [label="squared_error = -0.0\nsamples = 1\nvalue = 0.075", fillcolor="#fdf6f0"] ;
217 -> 219 ;
220 [label="squared_error = -0.0\nsamples = 1\nvalue = 0.077", fillcolor="#fdf5f0"] ;
210 -> 220 ;
221 [label="squared_error = 0.0\nsamples = 1\nvalue = 0.074", fillcolor="#fdf6f0"] ;
209 -> 221 ;
222 [label="km <= 0.174\nsquared_error = 0.0\nsamples = 2\nvalue = 0.071", fillcolor="#fdf6f1"] ;
208 -> 222 ;
223 [label="squared_error = 0.0\nsamples = 1\nvalue = 0.073", fillcolor="#fdf6f0"] ;
222 -> 223 ;
224 [label="squared_error = -0.0\nsamples = 1\nvalue = 0.069", fillcolor="#fdf6f1"] ;
222 -> 224 ;
225 [label="squared_error = -0.0\nsamples = 1\nvalue = 0.093", fillcolor="#fdf3ed"] ;
207 -> 225 ;
226 [label="km <= 0.204\nsquared_error = 0.0\nsamples = 33\nvalue = 0.074", fillcolor="#fdf6f0"] ;
200 -> 226 ;
227 [label="engine volume <= 0.162\nsquared_error = 0.0\nsamples = 2\nvalue = 0.064", fillcolor="#fdf7f2"] ;
226 -> 227 ;
228 [label="squared_error = 0.0\nsamples = 1\nvalue = 0.068", fillcolor="#fdf6f2"] ;
227 -> 228 ;
229 [label="squared_error = 0.0\nsamples = 1\nvalue = 0.063", fillcolor="#fdf7f3"] ;
227 -> 229 ;
230 [label="horse power <= 0.133\nsquared_error = 0.0\nsamples = 31\nvalue = 0.075", fillcolor="#fdf6f0"] ;
226 -> 230 ;
231 [label="year <= 3.0\nsquared_error = 0.0\nsamples = 3\nvalue = 0.066", fillcolor="#fdf7f2"] ;
230 -> 231 ;
232 [label="current owner <= 1.5\nsquared_error = 0.0\nsamples = 2\nvalue = 0.075", fillcolor="#fdf6f0"] ;
231 -> 232 ;
233 [label="squared_error = 0.0\nsamples = 1\nvalue = 0.078", fillcolor="#fdf5f0"] ;
232 -> 233 ;
234 [label="squared_error = 0.0\nsamples = 1\nvalue = 0.071", fillcolor="#fdf6f1"] ;
232 -> 234 ;
235 [label="squared_error = -0.0\nsamples = 1\nvalue = 0.049", fillcolor="#fef9f5"] ;
231 -> 235 ;
236 [label="engine volume <= 0.162\nsquared_error = 0.0\nsamples = 28\nvalue = 0.076", fillcolor="#fdf5f0"] ;
230 -> 236 ;
237 [label="current owner <= 1.5\nsquared_error = 0.0\nsamples = 3\nvalue = 0.067", fillcolor="#fdf7f2"] ;
236 -> 237 ;
238 [label="squared_error = 0.0\nsamples = 1\nvalue = 0.063", fillcolor="#fdf7f2"] ;
237 -> 238 ;
239 [label="km <= 0.231\nsquared_error = 0.0\nsamples = 2\nvalue = 0.069", fillcolor="#fdf6f1"] ;
237 -> 239 ;
240 [label="squared_error = 0.0\nsamples = 1\nvalue = 0.067", fillcolor="#fdf7f2"] ;
239 -> 240 ;
241 [label="squared_error = 0.0\nsamples = 1\nvalue = 0.071", fillcolor="#fdf6f1"] ;
239 -> 241 ;
242 [label="km <= 0.237\nsquared_error = 0.0\nsamples = 25\nvalue = 0.076", fillcolor="#fdf5f0"] ;
236 -> 242 ;
243 [label="km <= 0.208\nsquared_error = 0.0\nsamples = 13\nvalue = 0.078", fillcolor="#fdf5f0"] ;
242 -> 243 ;
244 [label="km <= 0.206\nsquared_error = 0.0\nsamples = 2\nvalue = 0.073", fillcolor="#fdf6f1"] ;
243 -> 244 ;
245 [label="squared_error = 0.0\nsamples = 1\nvalue = 0.071", fillcolor="#fdf6f1"] ;
244 -> 245 ;
246 [label="squared_error = -0.0\nsamples = 1\nvalue = 0.074", fillcolor="#fdf6f0"] ;
244 -> 246 ;
247 [label="year <= 3.5\nsquared_error = 0.0\nsamples = 11\nvalue = 0.079", fillcolor="#fdf5ef"] ;
243 -> 247 ;
248 [label="km <= 0.219\nsquared_error = 0.0\nsamples = 3\nvalue = 0.074", fillcolor="#fdf6f0"] ;
247 -> 248 ;
249 [label="squared_error = 0.0\nsamples = 1\nvalue = 0.074", fillcolor="#fdf6f0"] ;
248 -> 249 ;
250 [label="km <= 0.226\nsquared_error = 0.0\nsamples = 2\nvalue = 0.072", fillcolor="#fdf6f1"] ;
248 -> 250 ;
251 [label="squared_error = 0.0\nsamples = 1\nvalue = 0.071", fillcolor="#fdf6f1"] ;
250 -> 251 ;
252 [label="squared_error = 0.0\nsamples = 1\nvalue = 0.074", fillcolor="#fdf6f0"] ;
250 -> 252 ;
253 [label="km <= 0.222\nsquared_error = 0.0\nsamples = 8\nvalue = 0.083", fillcolor="#fdf5ef"] ;
247 -> 253 ;
254 [label="km <= 0.214\nsquared_error = 0.0\nsamples = 2\nvalue = 0.092", fillcolor="#fdf3ed"] ;
253 -> 254 ;
255 [label="squared_error = 0.0\nsamples = 1\nvalue = 0.094", fillcolor="#fdf3ec"] ;
254 -> 255 ;
256 [label="squared_error = -0.0\nsamples = 1\nvalue = 0.089", fillcolor="#fdf4ed"] ;
254 -> 256 ;
257 [label="km <= 0.228\nsquared_error = 0.0\nsamples = 6\nvalue = 0.081", fillcolor="#fdf5ef"] ;
253 -> 257 ;
258 [label="km <= 0.227\nsquared_error = 0.0\nsamples = 3\nvalue = 0.078", fillcolor="#fdf5f0"] ;
257 -> 258 ;
259 [label="km <= 0.226\nsquared_error = 0.0\nsamples = 2\nvalue = 0.079", fillcolor="#fdf5ef"] ;
258 -> 259 ;
260 [label="squared_error = 0.0\nsamples = 1\nvalue = 0.079", fillcolor="#fdf5ef"] ;
259 -> 260 ;
261 [label="squared_error = 0.0\nsamples = 1\nvalue = 0.08", fillcolor="#fdf5ef"] ;
259 -> 261 ;
262 [label="squared_error = 0.0\nsamples = 1\nvalue = 0.071", fillcolor="#fdf6f1"] ;
258 -> 262 ;
263 [label="km <= 0.234\nsquared_error = 0.0\nsamples = 3\nvalue = 0.084", fillcolor="#fdf4ee"] ;
257 -> 263 ;
264 [label="squared_error = 0.0\nsamples = 2\nvalue = 0.085", fillcolor="#fdf4ee"] ;
263 -> 264 ;
265 [label="squared_error = -0.0\nsamples = 1\nvalue = 0.084", fillcolor="#fdf4ee"] ;
263 -> 265 ;
266 [label="km <= 0.246\nsquared_error = 0.0\nsamples = 12\nvalue = 0.074", fillcolor="#fdf6f0"] ;
242 -> 266 ;
267 [label="km <= 0.239\nsquared_error = 0.0\nsamples = 3\nvalue = 0.072", fillcolor="#fdf6f1"] ;
266 -> 267 ;
268 [label="squared_error = 0.0\nsamples = 1\nvalue = 0.068", fillcolor="#fdf6f1"] ;
267 -> 268 ;
269 [label="current owner <= 1.5\nsquared_error = 0.0\nsamples = 2\nvalue = 0.072", fillcolor="#fdf6f1"] ;
267 -> 269 ;
270 [label="squared_error = 0.0\nsamples = 1\nvalue = 0.074", fillcolor="#fdf6f0"] ;
269 -> 270 ;
271 [label="squared_error = 0.0\nsamples = 1\nvalue = 0.071", fillcolor="#fdf6f1"] ;
269 -> 271 ;
272 [label="km <= 0.248\nsquared_error = 0.0\nsamples = 9\nvalue = 0.076", fillcolor="#fdf5f0"] ;
266 -> 272 ;
273 [label="km <= 0.247\nsquared_error = 0.0\nsamples = 2\nvalue = 0.082", fillcolor="#fdf5ef"] ;
272 -> 273 ;
274 [label="squared_error = 0.0\nsamples = 1\nvalue = 0.079", fillcolor="#fdf5ef"] ;
273 -> 274 ;
275 [label="squared_error = 0.0\nsamples = 1\nvalue = 0.084", fillcolor="#fdf4ee"] ;
273 -> 275 ;
276 [label="km <= 0.25\nsquared_error = 0.0\nsamples = 7\nvalue = 0.074", fillcolor="#fdf6f0"] ;
272 -> 276 ;
277 [label="current owner <= 1.5\nsquared_error = 0.0\nsamples = 2\nvalue = 0.071", fillcolor="#fdf6f1"] ;
276 -> 277 ;
278 [label="squared_error = 0.0\nsamples = 1\nvalue = 0.068", fillcolor="#fdf6f1"] ;
277 -> 278 ;
279 [label="squared_error = 0.0\nsamples = 1\nvalue = 0.073", fillcolor="#fdf6f1"] ;
277 -> 279 ;
280 [label="km <= 0.259\nsquared_error = 0.0\nsamples = 5\nvalue = 0.076", fillcolor="#fdf5f0"] ;
276 -> 280 ;
281 [label="year <= 3.5\nsquared_error = 0.0\nsamples = 2\nvalue = 0.079", fillcolor="#fdf5ef"] ;
280 -> 281 ;
282 [label="squared_error = 0.0\nsamples = 1\nvalue = 0.076", fillcolor="#fdf5f0"] ;
281 -> 282 ;
283 [label="squared_error = 0.0\nsamples = 1\nvalue = 0.084", fillcolor="#fdf4ee"] ;
281 -> 283 ;
284 [label="km <= 0.263\nsquared_error = 0.0\nsamples = 3\nvalue = 0.073", fillcolor="#fdf6f0"] ;
280 -> 284 ;
285 [label="squared_error = 0.0\nsamples = 1\nvalue = 0.075", fillcolor="#fdf6f0"] ;
284 -> 285 ;
286 [label="km <= 0.265\nsquared_error = 0.0\nsamples = 2\nvalue = 0.072", fillcolor="#fdf6f1"] ;
284 -> 286 ;
287 [label="squared_error = 0.0\nsamples = 1\nvalue = 0.069", fillcolor="#fdf6f1"] ;
286 -> 287 ;
288 [label="squared_error = 0.0\nsamples = 1\nvalue = 0.075", fillcolor="#fdf6f0"] ;
286 -> 288 ;
289 [label="current owner <= 3.5\nsquared_error = 0.0\nsamples = 7\nvalue = 0.088", fillcolor="#fdf4ee"] ;
199 -> 289 ;
290 [label="km <= 0.173\nsquared_error = 0.0\nsamples = 5\nvalue = 0.093", fillcolor="#fdf3ed"] ;
289 -> 290 ;
291 [label="squared_error = 0.0\nsamples = 1\nvalue = 0.104", fillcolor="#fcf2ea"] ;
290 -> 291 ;
292 [label="engine volume <= 0.162\nsquared_error = 0.0\nsamples = 4\nvalue = 0.09", fillcolor="#fdf4ed"] ;
290 -> 292 ;
293 [label="squared_error = 0.0\nsamples = 1\nvalue = 0.08", fillcolor="#fdf5ef"] ;
292 -> 293 ;
294 [label="year <= 3.5\nsquared_error = 0.0\nsamples = 3\nvalue = 0.091", fillcolor="#fdf3ed"] ;
292 -> 294 ;
295 [label="squared_error = 0.0\nsamples = 1\nvalue = 0.09", fillcolor="#fdf4ed"] ;
294 -> 295 ;
296 [label="km <= 0.219\nsquared_error = 0.0\nsamples = 2\nvalue = 0.095", fillcolor="#fdf3ec"] ;
294 -> 296 ;
297 [label="squared_error = 0.0\nsamples = 1\nvalue = 0.096", fillcolor="#fdf3ec"] ;
296 -> 297 ;
298 [label="squared_error = -0.0\nsamples = 1\nvalue = 0.094", fillcolor="#fdf3ec"] ;
296 -> 298 ;
299 [label="km <= 0.189\nsquared_error = 0.0\nsamples = 2\nvalue = 0.062", fillcolor="#fdf7f3"] ;
289 -> 299 ;
300 [label="squared_error = 0.0\nsamples = 1\nvalue = 0.063", fillcolor="#fdf7f3"] ;
299 -> 300 ;
301 [label="squared_error = 0.0\nsamples = 1\nvalue = 0.061", fillcolor="#fdf7f3"] ;
299 -> 301 ;
302 [label="km <= 0.21\nsquared_error = 0.0\nsamples = 5\nvalue = 0.07", fillcolor="#fdf6f1"] ;
198 -> 302 ;
303 [label="km <= 0.166\nsquared_error = 0.0\nsamples = 3\nvalue = 0.074", fillcolor="#fdf6f0"] ;
302 -> 303 ;
304 [label="squared_error = 0.0\nsamples = 1\nvalue = 0.068", fillcolor="#fdf6f2"] ;
303 -> 304 ;
305 [label="km <= 0.178\nsquared_error = 0.0\nsamples = 2\nvalue = 0.077", fillcolor="#fdf5f0"] ;
303 -> 305 ;
306 [label="squared_error = 0.0\nsamples = 1\nvalue = 0.079", fillcolor="#fdf5ef"] ;
305 -> 306 ;
307 [label="squared_error = -0.0\nsamples = 1\nvalue = 0.074", fillcolor="#fdf6f0"] ;
305 -> 307 ;
308 [label="current owner <= 2.5\nsquared_error = 0.0\nsamples = 2\nvalue = 0.063", fillcolor="#fdf7f2"] ;
302 -> 308 ;
309 [label="squared_error = 0.0\nsamples = 1\nvalue = 0.067", fillcolor="#fdf7f2"] ;
308 -> 309 ;
310 [label="squared_error = -0.0\nsamples = 1\nvalue = 0.06", fillcolor="#fdf7f3"] ;
308 -> 310 ;
311 [label="km <= 0.206\nsquared_error = 0.0\nsamples = 4\nvalue = 0.092", fillcolor="#fdf3ed"] ;
197 -> 311 ;
312 [label="year <= 4.5\nsquared_error = 0.0\nsamples = 2\nvalue = 0.079", fillcolor="#fdf5ef"] ;
311 -> 312 ;
313 [label="squared_error = 0.0\nsamples = 1\nvalue = 0.073", fillcolor="#fdf6f1"] ;
312 -> 313 ;
314 [label="squared_error = -0.0\nsamples = 1\nvalue = 0.082", fillcolor="#fdf5ef"] ;
312 -> 314 ;
315 [label="km <= 0.223\nsquared_error = 0.0\nsamples = 2\nvalue = 0.099", fillcolor="#fcf2eb"] ;
311 -> 315 ;
316 [label="squared_error = 0.0\nsamples = 1\nvalue = 0.102", fillcolor="#fcf2eb"] ;
315 -> 316 ;
317 [label="squared_error = 0.0\nsamples = 1\nvalue = 0.09", fillcolor="#fdf4ed"] ;
315 -> 317 ;
318 [label="engine volume <= 0.161\nsquared_error = 0.0\nsamples = 6\nvalue = 0.039", fillcolor="#fefaf7"] ;
22 -> 318 ;
319 [label="squared_error = 0.0\nsamples = 1\nvalue = 0.058", fillcolor="#fef8f4"] ;
318 -> 319 ;
320 [label="year <= 6.5\nsquared_error = 0.0\nsamples = 5\nvalue = 0.034", fillcolor="#fefbf8"] ;
318 -> 320 ;
321 [label="km <= 0.316\nsquared_error = 0.0\nsamples = 3\nvalue = 0.036", fillcolor="#fefaf8"] ;
320 -> 321 ;
322 [label="km <= 0.24\nsquared_error = 0.0\nsamples = 2\nvalue = 0.04", fillcolor="#fefaf7"] ;
321 -> 322 ;
323 [label="squared_error = 0.0\nsamples = 1\nvalue = 0.04", fillcolor="#fefaf7"] ;
322 -> 323 ;
324 [label="squared_error = 0.0\nsamples = 1\nvalue = 0.041", fillcolor="#fefaf7"] ;
322 -> 324 ;
325 [label="squared_error = 0.0\nsamples = 1\nvalue = 0.029", fillcolor="#fefbf9"] ;
321 -> 325 ;
326 [label="km <= 0.165\nsquared_error = 0.0\nsamples = 2\nvalue = 0.028", fillcolor="#fefbf9"] ;
320 -> 326 ;
327 [label="squared_error = 0.0\nsamples = 1\nvalue = 0.03", fillcolor="#fefbf9"] ;
326 -> 327 ;
328 [label="squared_error = -0.0\nsamples = 1\nvalue = 0.025", fillcolor="#fefcfa"] ;
326 -> 328 ;
329 [label="km <= 0.267\nsquared_error = 0.0\nsamples = 361\nvalue = 0.057", fillcolor="#fef8f4"] ;
3 -> 329 ;
330 [label="km <= 0.111\nsquared_error = 0.0\nsamples = 336\nvalue = 0.059", fillcolor="#fdf8f3"] ;
329 -> 330 ;
331 [label="horse power <= 0.133\nsquared_error = 0.0\nsamples = 104\nvalue = 0.067", fillcolor="#fdf7f2"] ;
330 -> 331 ;
332 [label="km <= 0.09\nsquared_error = 0.0\nsamples = 102\nvalue = 0.066", fillcolor="#fdf7f2"] ;
331 -> 332 ;
333 [label="engine volume <= 0.199\nsquared_error = 0.0\nsamples = 71\nvalue = 0.067", fillcolor="#fdf7f2"] ;
332 -> 333 ;
334 [label="year <= 5.5\nsquared_error = 0.0\nsamples = 32\nvalue = 0.064", fillcolor="#fdf7f2"] ;
333 -> 334 ;
335 [label="km <= 0.051\nsquared_error = 0.0\nsamples = 31\nvalue = 0.065", fillcolor="#fdf7f2"] ;
334 -> 335 ;
336 [label="km <= 0.05\nsquared_error = 0.0\nsamples = 16\nvalue = 0.067", fillcolor="#fdf7f2"] ;
335 -> 336 ;
337 [label="km <= 0.027\nsquared_error = 0.0\nsamples = 15\nvalue = 0.066", fillcolor="#fdf7f2"] ;
336 -> 337 ;
338 [label="hand <= 0.214\nsquared_error = 0.0\nsamples = 4\nvalue = 0.069", fillcolor="#fdf6f1"] ;
337 -> 338 ;
339 [label="engine volume <= 0.194\nsquared_error = 0.0\nsamples = 3\nvalue = 0.068", fillcolor="#fdf6f1"] ;
338 -> 339 ;
340 [label="squared_error = 0.0\nsamples = 1\nvalue = 0.067", fillcolor="#fdf7f2"] ;
339 -> 340 ;
341 [label="year <= 1.5\nsquared_error = 0.0\nsamples = 2\nvalue = 0.069", fillcolor="#fdf6f1"] ;
339 -> 341 ;
342 [label="squared_error = 0.0\nsamples = 1\nvalue = 0.069", fillcolor="#fdf6f1"] ;
341 -> 342 ;
343 [label="squared_error = -0.0\nsamples = 1\nvalue = 0.069", fillcolor="#fdf6f1"] ;
341 -> 343 ;
344 [label="squared_error = -0.0\nsamples = 1\nvalue = 0.072", fillcolor="#fdf6f1"] ;
338 -> 344 ;
345 [label="km <= 0.044\nsquared_error = 0.0\nsamples = 11\nvalue = 0.066", fillcolor="#fdf7f2"] ;
337 -> 345 ;
346 [label="km <= 0.038\nsquared_error = 0.0\nsamples = 8\nvalue = 0.066", fillcolor="#fdf7f2"] ;
345 -> 346 ;
347 [label="current owner <= 2.5\nsquared_error = 0.0\nsamples = 6\nvalue = 0.065", fillcolor="#fdf7f2"] ;
346 -> 347 ;
348 [label="km <= 0.036\nsquared_error = 0.0\nsamples = 3\nvalue = 0.064", fillcolor="#fdf7f2"] ;
347 -> 348 ;
349 [label="km <= 0.034\nsquared_error = 0.0\nsamples = 2\nvalue = 0.063", fillcolor="#fdf7f3"] ;
348 -> 349 ;
350 [label="squared_error = 0.0\nsamples = 1\nvalue = 0.062", fillcolor="#fdf7f3"] ;
349 -> 350 ;
351 [label="squared_error = 0.0\nsamples = 1\nvalue = 0.063", fillcolor="#fdf7f2"] ;
349 -> 351 ;
352 [label="squared_error = 0.0\nsamples = 1\nvalue = 0.067", fillcolor="#fdf7f2"] ;
348 -> 352 ;
353 [label="km <= 0.031\nsquared_error = 0.0\nsamples = 3\nvalue = 0.066", fillcolor="#fdf7f2"] ;
347 -> 353 ;
354 [label="squared_error = 0.0\nsamples = 1\nvalue = 0.065", fillcolor="#fdf7f2"] ;
353 -> 354 ;
355 [label="km <= 0.035\nsquared_error = 0.0\nsamples = 2\nvalue = 0.067", fillcolor="#fdf7f2"] ;
353 -> 355 ;
356 [label="squared_error = 0.0\nsamples = 1\nvalue = 0.067", fillcolor="#fdf7f2"] ;
355 -> 356 ;
357 [label="squared_error = 0.0\nsamples = 1\nvalue = 0.067", fillcolor="#fdf7f2"] ;
355 -> 357 ;
358 [label="km <= 0.04\nsquared_error = 0.0\nsamples = 2\nvalue = 0.069", fillcolor="#fdf6f1"] ;
346 -> 358 ;
359 [label="squared_error = 0.0\nsamples = 1\nvalue = 0.072", fillcolor="#fdf6f1"] ;
358 -> 359 ;
360 [label="squared_error = -0.0\nsamples = 1\nvalue = 0.068", fillcolor="#fdf6f1"] ;
358 -> 360 ;
361 [label="km <= 0.05\nsquared_error = 0.0\nsamples = 3\nvalue = 0.064", fillcolor="#fdf7f2"] ;
345 -> 361 ;
362 [label="km <= 0.047\nsquared_error = 0.0\nsamples = 2\nvalue = 0.063", fillcolor="#fdf7f3"] ;
361 -> 362 ;
363 [label="squared_error = 0.0\nsamples = 1\nvalue = 0.064", fillcolor="#fdf7f2"] ;
362 -> 363 ;
364 [label="squared_error = -0.0\nsamples = 1\nvalue = 0.063", fillcolor="#fdf7f3"] ;
362 -> 364 ;
365 [label="squared_error = 0.0\nsamples = 1\nvalue = 0.065", fillcolor="#fdf7f2"] ;
361 -> 365 ;
366 [label="squared_error = 0.0\nsamples = 1\nvalue = 0.071", fillcolor="#fdf6f1"] ;
336 -> 366 ;
367 [label="gear box <= 0.5\nsquared_error = 0.0\nsamples = 15\nvalue = 0.063", fillcolor="#fdf7f3"] ;
335 -> 367 ;
368 [label="squared_error = 0.0\nsamples = 1\nvalue = 0.053", fillcolor="#fef8f5"] ;
367 -> 368 ;
369 [label="current owner <= 1.5\nsquared_error = 0.0\nsamples = 14\nvalue = 0.063", fillcolor="#fdf7f2"] ;
367 -> 369 ;
370 [label="squared_error = 0.0\nsamples = 1\nvalue = 0.055", fillcolor="#fef8f4"] ;
369 -> 370 ;
371 [label="km <= 0.055\nsquared_error = 0.0\nsamples = 13\nvalue = 0.064", fillcolor="#fdf7f2"] ;
369 -> 371 ;
372 [label="horse power <= 0.073\nsquared_error = 0.0\nsamples = 2\nvalue = 0.059", fillcolor="#fdf8f3"] ;
371 -> 372 ;
373 [label="squared_error = 0.0\nsamples = 1\nvalue = 0.054", fillcolor="#fef8f4"] ;
372 -> 373 ;
374 [label="squared_error = 0.0\nsamples = 1\nvalue = 0.064", fillcolor="#fdf7f2"] ;
372 -> 374 ;
375 [label="current owner <= 2.5\nsquared_error = 0.0\nsamples = 11\nvalue = 0.064", fillcolor="#fdf7f2"] ;
371 -> 375 ;
376 [label="km <= 0.074\nsquared_error = 0.0\nsamples = 6\nvalue = 0.063", fillcolor="#fdf7f3"] ;
375 -> 376 ;
377 [label="km <= 0.068\nsquared_error = 0.0\nsamples = 5\nvalue = 0.063", fillcolor="#fdf7f2"] ;
376 -> 377 ;
378 [label="km <= 0.065\nsquared_error = 0.0\nsamples = 4\nvalue = 0.063", fillcolor="#fdf7f3"] ;
377 -> 378 ;
379 [label="km <= 0.062\nsquared_error = 0.0\nsamples = 3\nvalue = 0.063", fillcolor="#fdf7f3"] ;
378 -> 379 ;
380 [label="squared_error = -0.0\nsamples = 2\nvalue = 0.063", fillcolor="#fdf7f3"] ;
379 -> 380 ;
381 [label="squared_error = 0.0\nsamples = 1\nvalue = 0.062", fillcolor="#fdf7f3"] ;
379 -> 381 ;
382 [label="squared_error = -0.0\nsamples = 1\nvalue = 0.065", fillcolor="#fdf7f2"] ;
378 -> 382 ;
383 [label="squared_error = 0.0\nsamples = 1\nvalue = 0.069", fillcolor="#fdf6f1"] ;
377 -> 383 ;
384 [label="squared_error = -0.0\nsamples = 1\nvalue = 0.061", fillcolor="#fdf7f3"] ;
376 -> 384 ;
385 [label="engine volume <= 0.194\nsquared_error = 0.0\nsamples = 5\nvalue = 0.065", fillcolor="#fdf7f2"] ;
375 -> 385 ;
386 [label="squared_error = 0.0\nsamples = 1\nvalue = 0.062", fillcolor="#fdf7f3"] ;
385 -> 386 ;
387 [label="km <= 0.085\nsquared_error = 0.0\nsamples = 4\nvalue = 0.066", fillcolor="#fdf7f2"] ;
385 -> 387 ;
388 [label="horse power <= 0.103\nsquared_error = 0.0\nsamples = 3\nvalue = 0.066", fillcolor="#fdf7f2"] ;
387 -> 388 ;
389 [label="year <= 2.5\nsquared_error = 0.0\nsamples = 2\nvalue = 0.066", fillcolor="#fdf7f2"] ;
388 -> 389 ;
390 [label="squared_error = 0.0\nsamples = 1\nvalue = 0.066", fillcolor="#fdf7f2"] ;
389 -> 390 ;
391 [label="squared_error = 0.0\nsamples = 1\nvalue = 0.066", fillcolor="#fdf7f2"] ;
389 -> 391 ;
392 [label="squared_error = 0.0\nsamples = 1\nvalue = 0.064", fillcolor="#fdf7f2"] ;
388 -> 392 ;
393 [label="squared_error = 0.0\nsamples = 1\nvalue = 0.069", fillcolor="#fdf6f1"] ;
387 -> 393 ;
394 [label="squared_error = 0.0\nsamples = 1\nvalue = 0.048", fillcolor="#fef9f6"] ;
334 -> 394 ;
395 [label="horse power <= 0.107\nsquared_error = 0.0\nsamples = 39\nvalue = 0.07", fillcolor="#fdf6f1"] ;
333 -> 395 ;
396 [label="year <= 3.5\nsquared_error = 0.0\nsamples = 37\nvalue = 0.069", fillcolor="#fdf6f1"] ;
395 -> 396 ;
397 [label="km <= 0.066\nsquared_error = 0.0\nsamples = 26\nvalue = 0.07", fillcolor="#fdf6f1"] ;
396 -> 397 ;
398 [label="km <= 0.026\nsquared_error = 0.0\nsamples = 12\nvalue = 0.073", fillcolor="#fdf6f1"] ;
397 -> 398 ;
399 [label="current owner <= 1.5\nsquared_error = 0.0\nsamples = 4\nvalue = 0.071", fillcolor="#fdf6f1"] ;
398 -> 399 ;
400 [label="squared_error = -0.0\nsamples = 1\nvalue = 0.073", fillcolor="#fdf6f1"] ;
399 -> 400 ;
401 [label="year <= 2.5\nsquared_error = 0.0\nsamples = 3\nvalue = 0.069", fillcolor="#fdf6f1"] ;
399 -> 401 ;
402 [label="squared_error = 0.0\nsamples = 1\nvalue = 0.07", fillcolor="#fdf6f1"] ;
401 -> 402 ;
403 [label="horse power <= 0.091\nsquared_error = 0.0\nsamples = 2\nvalue = 0.068", fillcolor="#fdf6f2"] ;
401 -> 403 ;
404 [label="squared_error = 0.0\nsamples = 1\nvalue = 0.068", fillcolor="#fdf6f1"] ;
403 -> 404 ;
405 [label="squared_error = -0.0\nsamples = 1\nvalue = 0.068", fillcolor="#fdf6f2"] ;
403 -> 405 ;
406 [label="km <= 0.057\nsquared_error = 0.0\nsamples = 8\nvalue = 0.074", fillcolor="#fdf6f0"] ;
398 -> 406 ;
407 [label="km <= 0.049\nsquared_error = 0.0\nsamples = 6\nvalue = 0.075", fillcolor="#fdf6f0"] ;
406 -> 407 ;
408 [label="km <= 0.028\nsquared_error = 0.0\nsamples = 3\nvalue = 0.076", fillcolor="#fdf5f0"] ;
407 -> 408 ;
409 [label="squared_error = 0.0\nsamples = 1\nvalue = 0.077", fillcolor="#fdf5f0"] ;
408 -> 409 ;
410 [label="km <= 0.039\nsquared_error = 0.0\nsamples = 2\nvalue = 0.075", fillcolor="#fdf5f0"] ;
408 -> 410 ;
411 [label="squared_error = 0.0\nsamples = 1\nvalue = 0.075", fillcolor="#fdf6f0"] ;
410 -> 411 ;
412 [label="squared_error = 0.0\nsamples = 1\nvalue = 0.076", fillcolor="#fdf5f0"] ;
410 -> 412 ;
413 [label="km <= 0.055\nsquared_error = 0.0\nsamples = 3\nvalue = 0.074", fillcolor="#fdf6f0"] ;
407 -> 413 ;
414 [label="km <= 0.052\nsquared_error = 0.0\nsamples = 2\nvalue = 0.073", fillcolor="#fdf6f0"] ;
413 -> 414 ;
415 [label="squared_error = 0.0\nsamples = 1\nvalue = 0.073", fillcolor="#fdf6f1"] ;
414 -> 415 ;
416 [label="squared_error = 0.0\nsamples = 1\nvalue = 0.074", fillcolor="#fdf6f0"] ;
414 -> 416 ;
417 [label="squared_error = 0.0\nsamples = 1\nvalue = 0.077", fillcolor="#fdf5f0"] ;
413 -> 417 ;
418 [label="horse power <= 0.091\nsquared_error = 0.0\nsamples = 2\nvalue = 0.072", fillcolor="#fdf6f1"] ;
406 -> 418 ;
419 [label="squared_error = 0.0\nsamples = 1\nvalue = 0.07", fillcolor="#fdf6f1"] ;
418 -> 419 ;
420 [label="squared_error = 0.0\nsamples = 1\nvalue = 0.073", fillcolor="#fdf6f1"] ;
418 -> 420 ;
421 [label="current owner <= 4.0\nsquared_error = 0.0\nsamples = 14\nvalue = 0.068", fillcolor="#fdf6f1"] ;
397 -> 421 ;
422 [label="current owner <= 1.5\nsquared_error = 0.0\nsamples = 11\nvalue = 0.067", fillcolor="#fdf7f2"] ;
421 -> 422 ;
423 [label="km <= 0.07\nsquared_error = 0.0\nsamples = 3\nvalue = 0.071", fillcolor="#fdf6f1"] ;
422 -> 423 ;
424 [label="squared_error = 0.0\nsamples = 1\nvalue = 0.064", fillcolor="#fdf7f2"] ;
423 -> 424 ;
425 [label="km <= 0.075\nsquared_error = 0.0\nsamples = 2\nvalue = 0.073", fillcolor="#fdf6f0"] ;
423 -> 425 ;
426 [label="squared_error = 0.0\nsamples = 1\nvalue = 0.072", fillcolor="#fdf6f1"] ;
425 -> 426 ;
427 [label="squared_error = -0.0\nsamples = 1\nvalue = 0.075", fillcolor="#fdf6f0"] ;
425 -> 427 ;
428 [label="current owner <= 2.5\nsquared_error = 0.0\nsamples = 8\nvalue = 0.066", fillcolor="#fdf7f2"] ;
422 -> 428 ;
429 [label="year <= 2.5\nsquared_error = 0.0\nsamples = 5\nvalue = 0.065", fillcolor="#fdf7f2"] ;
428 -> 429 ;
430 [label="squared_error = 0.0\nsamples = 1\nvalue = 0.068", fillcolor="#fdf6f2"] ;
429 -> 430 ;
431 [label="km <= 0.079\nsquared_error = 0.0\nsamples = 4\nvalue = 0.065", fillcolor="#fdf7f2"] ;
429 -> 431 ;
432 [label="km <= 0.073\nsquared_error = 0.0\nsamples = 2\nvalue = 0.066", fillcolor="#fdf7f2"] ;
431 -> 432 ;
433 [label="squared_error = 0.0\nsamples = 1\nvalue = 0.066", fillcolor="#fdf7f2"] ;
432 -> 433 ;
434 [label="squared_error = -0.0\nsamples = 1\nvalue = 0.066", fillcolor="#fdf7f2"] ;
432 -> 434 ;
435 [label="engine volume <= 0.215\nsquared_error = 0.0\nsamples = 2\nvalue = 0.064", fillcolor="#fdf7f2"] ;
431 -> 435 ;
436 [label="squared_error = 0.0\nsamples = 1\nvalue = 0.063", fillcolor="#fdf7f2"] ;
435 -> 436 ;
437 [label="squared_error = 0.0\nsamples = 1\nvalue = 0.065", fillcolor="#fdf7f2"] ;
435 -> 437 ;
438 [label="km <= 0.075\nsquared_error = 0.0\nsamples = 3\nvalue = 0.069", fillcolor="#fdf6f1"] ;
428 -> 438 ;
439 [label="year <= 2.5\nsquared_error = 0.0\nsamples = 2\nvalue = 0.067", fillcolor="#fdf7f2"] ;
438 -> 439 ;
440 [label="squared_error = 0.0\nsamples = 1\nvalue = 0.067", fillcolor="#fdf7f2"] ;
439 -> 440 ;
441 [label="squared_error = 0.0\nsamples = 1\nvalue = 0.068", fillcolor="#fdf6f2"] ;
439 -> 441 ;
442 [label="squared_error = -0.0\nsamples = 1\nvalue = 0.07", fillcolor="#fdf6f1"] ;
438 -> 442 ;
443 [label="km <= 0.081\nsquared_error = 0.0\nsamples = 3\nvalue = 0.074", fillcolor="#fdf6f0"] ;
421 -> 443 ;
444 [label="km <= 0.069\nsquared_error = 0.0\nsamples = 2\nvalue = 0.073", fillcolor="#fdf6f0"] ;
443 -> 444 ;
445 [label="squared_error = 0.0\nsamples = 1\nvalue = 0.073", fillcolor="#fdf6f1"] ;
444 -> 445 ;
446 [label="squared_error = 0.0\nsamples = 1\nvalue = 0.074", fillcolor="#fdf6f0"] ;
444 -> 446 ;
447 [label="squared_error = 0.0\nsamples = 1\nvalue = 0.075", fillcolor="#fdf6f0"] ;
443 -> 447 ;
448 [label="km <= 0.054\nsquared_error = 0.0\nsamples = 11\nvalue = 0.066", fillcolor="#fdf7f2"] ;
396 -> 448 ;
449 [label="year <= 4.5\nsquared_error = 0.0\nsamples = 2\nvalue = 0.063", fillcolor="#fdf7f3"] ;
448 -> 449 ;
450 [label="squared_error = 0.0\nsamples = 1\nvalue = 0.062", fillcolor="#fdf7f3"] ;
449 -> 450 ;
451 [label="squared_error = -0.0\nsamples = 1\nvalue = 0.066", fillcolor="#fdf7f2"] ;
449 -> 451 ;
452 [label="year <= 5.5\nsquared_error = 0.0\nsamples = 9\nvalue = 0.067", fillcolor="#fdf7f2"] ;
448 -> 452 ;
453 [label="year <= 4.5\nsquared_error = 0.0\nsamples = 8\nvalue = 0.068", fillcolor="#fdf6f2"] ;
452 -> 453 ;
454 [label="km <= 0.075\nsquared_error = 0.0\nsamples = 6\nvalue = 0.068", fillcolor="#fdf6f2"] ;
453 -> 454 ;
455 [label="km <= 0.056\nsquared_error = 0.0\nsamples = 3\nvalue = 0.067", fillcolor="#fdf7f2"] ;
454 -> 455 ;
456 [label="squared_error = 0.0\nsamples = 1\nvalue = 0.068", fillcolor="#fdf6f2"] ;
455 -> 456 ;
457 [label="engine volume <= 0.215\nsquared_error = 0.0\nsamples = 2\nvalue = 0.067", fillcolor="#fdf7f2"] ;
455 -> 457 ;
458 [label="squared_error = 0.0\nsamples = 1\nvalue = 0.066", fillcolor="#fdf7f2"] ;
457 -> 458 ;
459 [label="squared_error = -0.0\nsamples = 1\nvalue = 0.067", fillcolor="#fdf7f2"] ;
457 -> 459 ;
460 [label="km <= 0.081\nsquared_error = 0.0\nsamples = 3\nvalue = 0.07", fillcolor="#fdf6f1"] ;
454 -> 460 ;
461 [label="squared_error = 0.0\nsamples = 1\nvalue = 0.074", fillcolor="#fdf6f0"] ;
460 -> 461 ;
462 [label="hand <= 0.214\nsquared_error = 0.0\nsamples = 2\nvalue = 0.068", fillcolor="#fdf6f1"] ;
460 -> 462 ;
463 [label="squared_error = 0.0\nsamples = 1\nvalue = 0.068", fillcolor="#fdf6f2"] ;
462 -> 463 ;
464 [label="squared_error = 0.0\nsamples = 1\nvalue = 0.069", fillcolor="#fdf6f1"] ;
462 -> 464 ;
465 [label="km <= 0.087\nsquared_error = 0.0\nsamples = 2\nvalue = 0.066", fillcolor="#fdf7f2"] ;
453 -> 465 ;
466 [label="squared_error = 0.0\nsamples = 1\nvalue = 0.064", fillcolor="#fdf7f2"] ;
465 -> 466 ;
467 [label="squared_error = 0.0\nsamples = 1\nvalue = 0.067", fillcolor="#fdf7f2"] ;
465 -> 467 ;
468 [label="squared_error = -0.0\nsamples = 1\nvalue = 0.06", fillcolor="#fdf7f3"] ;
452 -> 468 ;
469 [label="current owner <= 3.5\nsquared_error = 0.0\nsamples = 2\nvalue = 0.084", fillcolor="#fdf4ee"] ;
395 -> 469 ;
470 [label="squared_error = 0.0\nsamples = 1\nvalue = 0.082", fillcolor="#fdf5ef"] ;
469 -> 470 ;
471 [label="squared_error = 0.0\nsamples = 1\nvalue = 0.085", fillcolor="#fdf4ee"] ;
469 -> 471 ;
472 [label="current owner <= 4.0\nsquared_error = 0.0\nsamples = 31\nvalue = 0.063", fillcolor="#fdf7f3"] ;
332 -> 472 ;
473 [label="km <= 0.106\nsquared_error = 0.0\nsamples = 28\nvalue = 0.062", fillcolor="#fdf7f3"] ;
472 -> 473 ;
474 [label="horse power <= 0.073\nsquared_error = 0.0\nsamples = 20\nvalue = 0.061", fillcolor="#fdf7f3"] ;
473 -> 474 ;
475 [label="current owner <= 2.5\nsquared_error = 0.0\nsamples = 2\nvalue = 0.055", fillcolor="#fef8f4"] ;
474 -> 475 ;
476 [label="squared_error = 0.0\nsamples = 1\nvalue = 0.056", fillcolor="#fef8f4"] ;
475 -> 476 ;
477 [label="squared_error = 0.0\nsamples = 1\nvalue = 0.054", fillcolor="#fef8f4"] ;
475 -> 477 ;
478 [label="year <= 3.5\nsquared_error = 0.0\nsamples = 18\nvalue = 0.061", fillcolor="#fdf7f3"] ;
474 -> 478 ;
479 [label="engine volume <= 0.194\nsquared_error = 0.0\nsamples = 12\nvalue = 0.062", fillcolor="#fdf7f3"] ;
478 -> 479 ;
480 [label="km <= 0.103\nsquared_error = 0.0\nsamples = 3\nvalue = 0.059", fillcolor="#fdf8f3"] ;
479 -> 480 ;
481 [label="squared_error = -0.0\nsamples = 2\nvalue = 0.059", fillcolor="#fdf8f3"] ;
480 -> 481 ;
482 [label="squared_error = -0.0\nsamples = 1\nvalue = 0.058", fillcolor="#fdf8f3"] ;
480 -> 482 ;
483 [label="engine volume <= 0.215\nsquared_error = 0.0\nsamples = 9\nvalue = 0.062", fillcolor="#fdf7f3"] ;
479 -> 483 ;
484 [label="hand <= 0.214\nsquared_error = 0.0\nsamples = 6\nvalue = 0.063", fillcolor="#fdf7f3"] ;
483 -> 484 ;
485 [label="engine volume <= 0.199\nsquared_error = 0.0\nsamples = 5\nvalue = 0.063", fillcolor="#fdf7f2"] ;
484 -> 485 ;
486 [label="squared_error = 0.0\nsamples = 1\nvalue = 0.066", fillcolor="#fdf7f2"] ;
485 -> 486 ;
487 [label="km <= 0.093\nsquared_error = 0.0\nsamples = 4\nvalue = 0.063", fillcolor="#fdf7f3"] ;
485 -> 487 ;
488 [label="squared_error = 0.0\nsamples = 1\nvalue = 0.064", fillcolor="#fdf7f2"] ;
487 -> 488 ;
489 [label="km <= 0.095\nsquared_error = 0.0\nsamples = 3\nvalue = 0.063", fillcolor="#fdf7f3"] ;
487 -> 489 ;
490 [label="squared_error = 0.0\nsamples = 1\nvalue = 0.063", fillcolor="#fdf7f3"] ;
489 -> 490 ;
491 [label="squared_error = 0.0\nsamples = 2\nvalue = 0.063", fillcolor="#fdf7f3"] ;
489 -> 491 ;
492 [label="squared_error = -0.0\nsamples = 1\nvalue = 0.06", fillcolor="#fdf7f3"] ;
484 -> 492 ;
493 [label="km <= 0.091\nsquared_error = 0.0\nsamples = 3\nvalue = 0.06", fillcolor="#fdf7f3"] ;
483 -> 493 ;
494 [label="squared_error = 0.0\nsamples = 1\nvalue = 0.063", fillcolor="#fdf7f2"] ;
493 -> 494 ;
495 [label="km <= 0.092\nsquared_error = 0.0\nsamples = 2\nvalue = 0.058", fillcolor="#fef8f4"] ;
493 -> 495 ;
496 [label="squared_error = 0.0\nsamples = 1\nvalue = 0.057", fillcolor="#fef8f4"] ;
495 -> 496 ;
497 [label="squared_error = 0.0\nsamples = 1\nvalue = 0.058", fillcolor="#fef8f4"] ;
495 -> 497 ;
498 [label="km <= 0.092\nsquared_error = 0.0\nsamples = 6\nvalue = 0.058", fillcolor="#fdf8f3"] ;
478 -> 498 ;
499 [label="squared_error = 0.0\nsamples = 1\nvalue = 0.055", fillcolor="#fef8f4"] ;
498 -> 499 ;
500 [label="year <= 4.5\nsquared_error = 0.0\nsamples = 5\nvalue = 0.059", fillcolor="#fdf8f3"] ;
498 -> 500 ;
501 [label="engine volume <= 0.199\nsquared_error = 0.0\nsamples = 3\nvalue = 0.061", fillcolor="#fdf7f3"] ;
500 -> 501 ;
502 [label="squared_error = 0.0\nsamples = 1\nvalue = 0.058", fillcolor="#fdf8f3"] ;
501 -> 502 ;
503 [label="engine volume <= 0.215\nsquared_error = 0.0\nsamples = 2\nvalue = 0.062", fillcolor="#fdf7f3"] ;
501 -> 503 ;
504 [label="squared_error = 0.0\nsamples = 1\nvalue = 0.062", fillcolor="#fdf7f3"] ;
503 -> 504 ;
505 [label="squared_error = 0.0\nsamples = 1\nvalue = 0.062", fillcolor="#fdf7f3"] ;
503 -> 505 ;
506 [label="km <= 0.095\nsquared_error = 0.0\nsamples = 2\nvalue = 0.058", fillcolor="#fdf8f4"] ;
500 -> 506 ;
507 [label="squared_error = 0.0\nsamples = 1\nvalue = 0.059", fillcolor="#fdf8f3"] ;
506 -> 507 ;
508 [label="squared_error = 0.0\nsamples = 1\nvalue = 0.057", fillcolor="#fef8f4"] ;
506 -> 508 ;
509 [label="km <= 0.106\nsquared_error = 0.0\nsamples = 8\nvalue = 0.066", fillcolor="#fdf7f2"] ;
473 -> 509 ;
510 [label="squared_error = 0.0\nsamples = 1\nvalue = 0.079", fillcolor="#fdf5ef"] ;
509 -> 510 ;
511 [label="current owner <= 2.5\nsquared_error = 0.0\nsamples = 7\nvalue = 0.063", fillcolor="#fdf7f2"] ;
509 -> 511 ;
512 [label="year <= 3.5\nsquared_error = 0.0\nsamples = 5\nvalue = 0.06", fillcolor="#fdf7f3"] ;
511 -> 512 ;
513 [label="km <= 0.109\nsquared_error = 0.0\nsamples = 2\nvalue = 0.064", fillcolor="#fdf7f2"] ;
512 -> 513 ;
514 [label="squared_error = 0.0\nsamples = 1\nvalue = 0.065", fillcolor="#fdf7f2"] ;
513 -> 514 ;
515 [label="squared_error = 0.0\nsamples = 1\nvalue = 0.063", fillcolor="#fdf7f3"] ;
513 -> 515 ;
516 [label="km <= 0.106\nsquared_error = 0.0\nsamples = 3\nvalue = 0.057", fillcolor="#fef8f4"] ;
512 -> 516 ;
517 [label="squared_error = 0.0\nsamples = 1\nvalue = 0.054", fillcolor="#fef8f4"] ;
516 -> 517 ;
518 [label="current owner <= 1.5\nsquared_error = 0.0\nsamples = 2\nvalue = 0.058", fillcolor="#fdf8f4"] ;
516 -> 518 ;
519 [label="squared_error = 0.0\nsamples = 1\nvalue = 0.057", fillcolor="#fef8f4"] ;
518 -> 519 ;
520 [label="squared_error = 0.0\nsamples = 1\nvalue = 0.059", fillcolor="#fdf8f3"] ;
518 -> 520 ;
521 [label="km <= 0.109\nsquared_error = 0.0\nsamples = 2\nvalue = 0.071", fillcolor="#fdf6f1"] ;
511 -> 521 ;
522 [label="squared_error = 0.0\nsamples = 1\nvalue = 0.068", fillcolor="#fdf6f2"] ;
521 -> 522 ;
523 [label="squared_error = 0.0\nsamples = 1\nvalue = 0.077", fillcolor="#fdf5f0"] ;
521 -> 523 ;
524 [label="year <= 4.5\nsquared_error = 0.0\nsamples = 3\nvalue = 0.069", fillcolor="#fdf6f1"] ;
472 -> 524 ;
525 [label="squared_error = 0.0\nsamples = 2\nvalue = 0.07", fillcolor="#fdf6f1"] ;
524 -> 525 ;
526 [label="squared_error = -0.0\nsamples = 1\nvalue = 0.064", fillcolor="#fdf7f2"] ;
524 -> 526 ;
527 [label="year <= 3.0\nsquared_error = 0.0\nsamples = 2\nvalue = 0.106", fillcolor="#fcf2ea"] ;
331 -> 527 ;
528 [label="squared_error = 0.0\nsamples = 1\nvalue = 0.111", fillcolor="#fcf1e9"] ;
527 -> 528 ;
529 [label="squared_error = 0.0\nsamples = 1\nvalue = 0.102", fillcolor="#fcf2eb"] ;
527 -> 529 ;
530 [label="hand <= 0.214\nsquared_error = 0.0\nsamples = 232\nvalue = 0.055", fillcolor="#fef8f4"] ;
330 -> 530 ;
531 [label="horse power <= 0.133\nsquared_error = 0.0\nsamples = 199\nvalue = 0.056", fillcolor="#fef8f4"] ;
530 -> 531 ;
532 [label="engine volume <= 0.225\nsquared_error = 0.0\nsamples = 195\nvalue = 0.056", fillcolor="#fef8f4"] ;
531 -> 532 ;
533 [label="engine volume <= 0.212\nsquared_error = 0.0\nsamples = 159\nvalue = 0.057", fillcolor="#fef8f4"] ;
532 -> 533 ;
534 [label="gear box <= 0.5\nsquared_error = 0.0\nsamples = 135\nvalue = 0.055", fillcolor="#fef8f4"] ;
533 -> 534 ;
535 [label="km <= 0.15\nsquared_error = 0.0\nsamples = 2\nvalue = 0.033", fillcolor="#fefbf9"] ;
534 -> 535 ;
536 [label="squared_error = 0.0\nsamples = 1\nvalue = 0.035", fillcolor="#fefbf8"] ;
535 -> 536 ;
537 [label="squared_error = 0.0\nsamples = 1\nvalue = 0.031", fillcolor="#fefbf9"] ;
535 -> 537 ;
538 [label="km <= 0.207\nsquared_error = 0.0\nsamples = 133\nvalue = 0.056", fillcolor="#fef8f4"] ;
534 -> 538 ;
539 [label="km <= 0.135\nsquared_error = 0.0\nsamples = 111\nvalue = 0.057", fillcolor="#fef8f4"] ;
538 -> 539 ;
540 [label="engine volume <= 0.194\nsquared_error = 0.0\nsamples = 29\nvalue = 0.059", fillcolor="#fdf8f3"] ;
539 -> 540 ;
541 [label="year <= 2.5\nsquared_error = 0.0\nsamples = 8\nvalue = 0.056", fillcolor="#fef8f4"] ;
540 -> 541 ;
542 [label="squared_error = 0.0\nsamples = 1\nvalue = 0.061", fillcolor="#fdf7f3"] ;
541 -> 542 ;
543 [label="km <= 0.118\nsquared_error = 0.0\nsamples = 7\nvalue = 0.055", fillcolor="#fef8f4"] ;
541 -> 543 ;
544 [label="squared_error = 0.0\nsamples = 1\nvalue = 0.057", fillcolor="#fef8f4"] ;
543 -> 544 ;
545 [label="km <= 0.133\nsquared_error = 0.0\nsamples = 6\nvalue = 0.055", fillcolor="#fef8f4"] ;
543 -> 545 ;
546 [label="km <= 0.122\nsquared_error = 0.0\nsamples = 5\nvalue = 0.055", fillcolor="#fef8f4"] ;
545 -> 546 ;
547 [label="current owner <= 3.0\nsquared_error = 0.0\nsamples = 2\nvalue = 0.055", fillcolor="#fef8f4"] ;
546 -> 547 ;
548 [label="squared_error = 0.0\nsamples = 1\nvalue = 0.055", fillcolor="#fef8f4"] ;
547 -> 548 ;
549 [label="squared_error = 0.0\nsamples = 1\nvalue = 0.054", fillcolor="#fef8f4"] ;
547 -> 549 ;
550 [label="km <= 0.125\nsquared_error = 0.0\nsamples = 3\nvalue = 0.056", fillcolor="#fef8f4"] ;
546 -> 550 ;
551 [label="squared_error = 0.0\nsamples = 1\nvalue = 0.057", fillcolor="#fef8f4"] ;
550 -> 551 ;
552 [label="horse power <= 0.073\nsquared_error = 0.0\nsamples = 2\nvalue = 0.055", fillcolor="#fef8f4"] ;
550 -> 552 ;
553 [label="squared_error = 0.0\nsamples = 1\nvalue = 0.055", fillcolor="#fef8f4"] ;
552 -> 553 ;
554 [label="squared_error = 0.0\nsamples = 1\nvalue = 0.057", fillcolor="#fef8f4"] ;
552 -> 554 ;
555 [label="squared_error = -0.0\nsamples = 1\nvalue = 0.054", fillcolor="#fef8f4"] ;
545 -> 555 ;
556 [label="km <= 0.135\nsquared_error = 0.0\nsamples = 21\nvalue = 0.061", fillcolor="#fdf7f3"] ;
540 -> 556 ;
557 [label="km <= 0.134\nsquared_error = 0.0\nsamples = 20\nvalue = 0.061", fillcolor="#fdf7f3"] ;
556 -> 557 ;
558 [label="km <= 0.131\nsquared_error = 0.0\nsamples = 19\nvalue = 0.061", fillcolor="#fdf7f3"] ;
557 -> 558 ;
559 [label="current owner <= 2.5\nsquared_error = 0.0\nsamples = 16\nvalue = 0.06", fillcolor="#fdf7f3"] ;
558 -> 559 ;
560 [label="km <= 0.116\nsquared_error = 0.0\nsamples = 7\nvalue = 0.057", fillcolor="#fef8f4"] ;
559 -> 560 ;
561 [label="km <= 0.112\nsquared_error = 0.0\nsamples = 4\nvalue = 0.06", fillcolor="#fdf7f3"] ;
560 -> 561 ;
562 [label="squared_error = 0.0\nsamples = 1\nvalue = 0.059", fillcolor="#fdf8f3"] ;
561 -> 562 ;
563 [label="km <= 0.114\nsquared_error = 0.0\nsamples = 3\nvalue = 0.061", fillcolor="#fdf7f3"] ;
561 -> 563 ;
564 [label="km <= 0.113\nsquared_error = 0.0\nsamples = 2\nvalue = 0.061", fillcolor="#fdf7f3"] ;
563 -> 564 ;
565 [label="squared_error = 0.0\nsamples = 1\nvalue = 0.061", fillcolor="#fdf7f3"] ;
564 -> 565 ;
566 [label="squared_error = -0.0\nsamples = 1\nvalue = 0.061", fillcolor="#fdf7f3"] ;
564 -> 566 ;
567 [label="squared_error = 0.0\nsamples = 1\nvalue = 0.06", fillcolor="#fdf7f3"] ;
563 -> 567 ;
568 [label="engine volume <= 0.199\nsquared_error = 0.0\nsamples = 3\nvalue = 0.054", fillcolor="#fef8f4"] ;
560 -> 568 ;
569 [label="year <= 3.5\nsquared_error = 0.0\nsamples = 2\nvalue = 0.054", fillcolor="#fef8f4"] ;
568 -> 569 ;
570 [label="squared_error = 0.0\nsamples = 1\nvalue = 0.054", fillcolor="#fef8f4"] ;
569 -> 570 ;
571 [label="squared_error = 0.0\nsamples = 1\nvalue = 0.054", fillcolor="#fef8f4"] ;
569 -> 571 ;
572 [label="squared_error = 0.0\nsamples = 1\nvalue = 0.053", fillcolor="#fef8f4"] ;
568 -> 572 ;
573 [label="km <= 0.126\nsquared_error = 0.0\nsamples = 9\nvalue = 0.062", fillcolor="#fdf7f3"] ;
559 -> 573 ;
574 [label="year <= 5.5\nsquared_error = 0.0\nsamples = 7\nvalue = 0.064", fillcolor="#fdf7f2"] ;
573 -> 574 ;
575 [label="year <= 4.0\nsquared_error = 0.0\nsamples = 5\nvalue = 0.064", fillcolor="#fdf7f2"] ;
574 -> 575 ;
576 [label="year <= 2.5\nsquared_error = 0.0\nsamples = 4\nvalue = 0.063", fillcolor="#fdf7f2"] ;
575 -> 576 ;
577 [label="squared_error = 0.0\nsamples = 1\nvalue = 0.062", fillcolor="#fdf7f3"] ;
576 -> 577 ;
578 [label="engine volume <= 0.199\nsquared_error = 0.0\nsamples = 3\nvalue = 0.064", fillcolor="#fdf7f2"] ;
576 -> 578 ;
579 [label="squared_error = 0.0\nsamples = 1\nvalue = 0.065", fillcolor="#fdf7f2"] ;
578 -> 579 ;
580 [label="km <= 0.12\nsquared_error = 0.0\nsamples = 2\nvalue = 0.063", fillcolor="#fdf7f2"] ;
578 -> 580 ;
581 [label="squared_error = 0.0\nsamples = 1\nvalue = 0.063", fillcolor="#fdf7f3"] ;
580 -> 581 ;
582 [label="squared_error = 0.0\nsamples = 1\nvalue = 0.064", fillcolor="#fdf7f2"] ;
580 -> 582 ;
583 [label="squared_error = 0.0\nsamples = 1\nvalue = 0.066", fillcolor="#fdf7f2"] ;
575 -> 583 ;
584 [label="km <= 0.118\nsquared_error = 0.0\nsamples = 2\nvalue = 0.06", fillcolor="#fdf7f3"] ;
574 -> 584 ;
585 [label="squared_error = 0.0\nsamples = 1\nvalue = 0.059", fillcolor="#fdf8f3"] ;
584 -> 585 ;
586 [label="squared_error = -0.0\nsamples = 1\nvalue = 0.062", fillcolor="#fdf7f3"] ;
584 -> 586 ;
587 [label="km <= 0.127\nsquared_error = 0.0\nsamples = 2\nvalue = 0.059", fillcolor="#fdf8f3"] ;
573 -> 587 ;
588 [label="squared_error = 0.0\nsamples = 1\nvalue = 0.057", fillcolor="#fef8f4"] ;
587 -> 588 ;
589 [label="squared_error = -0.0\nsamples = 1\nvalue = 0.066", fillcolor="#fdf7f2"] ;
587 -> 589 ;
590 [label="year <= 3.5\nsquared_error = 0.0\nsamples = 3\nvalue = 0.066", fillcolor="#fdf7f2"] ;
558 -> 590 ;
591 [label="squared_error = 0.0\nsamples = 1\nvalue = 0.057", fillcolor="#fef8f4"] ;
590 -> 591 ;
592 [label="year <= 4.5\nsquared_error = 0.0\nsamples = 2\nvalue = 0.068", fillcolor="#fdf6f1"] ;
590 -> 592 ;
593 [label="squared_error = 0.0\nsamples = 1\nvalue = 0.069", fillcolor="#fdf6f1"] ;
592 -> 593 ;
594 [label="squared_error = 0.0\nsamples = 1\nvalue = 0.068", fillcolor="#fdf6f2"] ;
592 -> 594 ;
595 [label="squared_error = 0.0\nsamples = 1\nvalue = 0.046", fillcolor="#fef9f6"] ;
557 -> 595 ;
596 [label="squared_error = 0.0\nsamples = 1\nvalue = 0.071", fillcolor="#fdf6f1"] ;
556 -> 596 ;
597 [label="km <= 0.201\nsquared_error = 0.0\nsamples = 82\nvalue = 0.056", fillcolor="#fef8f4"] ;
539 -> 597 ;
598 [label="engine volume <= 0.202\nsquared_error = 0.0\nsamples = 75\nvalue = 0.055", fillcolor="#fef8f4"] ;
597 -> 598 ;
599 [label="km <= 0.147\nsquared_error = 0.0\nsamples = 34\nvalue = 0.053", fillcolor="#fef8f4"] ;
598 -> 599 ;
600 [label="current owner <= 1.5\nsquared_error = 0.0\nsamples = 13\nvalue = 0.052", fillcolor="#fef8f5"] ;
599 -> 600 ;
601 [label="squared_error = 0.0\nsamples = 2\nvalue = 0.046", fillcolor="#fef9f6"] ;
600 -> 601 ;
602 [label="current owner <= 3.0\nsquared_error = 0.0\nsamples = 11\nvalue = 0.053", fillcolor="#fef8f5"] ;
600 -> 602 ;
603 [label="km <= 0.14\nsquared_error = 0.0\nsamples = 10\nvalue = 0.054", fillcolor="#fef8f4"] ;
602 -> 603 ;
604 [label="km <= 0.14\nsquared_error = 0.0\nsamples = 3\nvalue = 0.052", fillcolor="#fef8f5"] ;
603 -> 604 ;
605 [label="year <= 3.5\nsquared_error = 0.0\nsamples = 2\nvalue = 0.055", fillcolor="#fef8f4"] ;
604 -> 605 ;
606 [label="squared_error = 0.0\nsamples = 1\nvalue = 0.057", fillcolor="#fef8f4"] ;
605 -> 606 ;
607 [label="squared_error = -0.0\nsamples = 1\nvalue = 0.053", fillcolor="#fef8f4"] ;
605 -> 607 ;
608 [label="squared_error = 0.0\nsamples = 1\nvalue = 0.049", fillcolor="#fef9f5"] ;
604 -> 608 ;
609 [label="km <= 0.145\nsquared_error = 0.0\nsamples = 7\nvalue = 0.054", fillcolor="#fef8f4"] ;
603 -> 609 ;
610 [label="km <= 0.141\nsquared_error = 0.0\nsamples = 5\nvalue = 0.055", fillcolor="#fef8f4"] ;
609 -> 610 ;
611 [label="squared_error = 0.0\nsamples = 1\nvalue = 0.057", fillcolor="#fef8f4"] ;
610 -> 611 ;
612 [label="km <= 0.144\nsquared_error = 0.0\nsamples = 4\nvalue = 0.055", fillcolor="#fef8f4"] ;
610 -> 612 ;
613 [label="squared_error = 0.0\nsamples = 2\nvalue = 0.054", fillcolor="#fef8f4"] ;
612 -> 613 ;
614 [label="year <= 3.5\nsquared_error = 0.0\nsamples = 2\nvalue = 0.056", fillcolor="#fef8f4"] ;
612 -> 614 ;
615 [label="squared_error = 0.0\nsamples = 1\nvalue = 0.057", fillcolor="#fef8f4"] ;
614 -> 615 ;
616 [label="squared_error = 0.0\nsamples = 1\nvalue = 0.056", fillcolor="#fef8f4"] ;
614 -> 616 ;
617 [label="horse power <= 0.099\nsquared_error = 0.0\nsamples = 2\nvalue = 0.052", fillcolor="#fef8f5"] ;
609 -> 617 ;
618 [label="squared_error = -0.0\nsamples = 1\nvalue = 0.053", fillcolor="#fef8f4"] ;
617 -> 618 ;
619 [label="squared_error = -0.0\nsamples = 1\nvalue = 0.051", fillcolor="#fef9f5"] ;
617 -> 619 ;
620 [label="squared_error = 0.0\nsamples = 1\nvalue = 0.049", fillcolor="#fef9f5"] ;
602 -> 620 ;
621 [label="km <= 0.16\nsquared_error = 0.0\nsamples = 21\nvalue = 0.054", fillcolor="#fef8f4"] ;
599 -> 621 ;
622 [label="km <= 0.152\nsquared_error = 0.0\nsamples = 10\nvalue = 0.056", fillcolor="#fef8f4"] ;
621 -> 622 ;
623 [label="km <= 0.15\nsquared_error = 0.0\nsamples = 3\nvalue = 0.058", fillcolor="#fdf8f4"] ;
622 -> 623 ;
624 [label="horse power <= 0.099\nsquared_error = 0.0\nsamples = 2\nvalue = 0.058", fillcolor="#fef8f4"] ;
623 -> 624 ;
625 [label="squared_error = 0.0\nsamples = 1\nvalue = 0.057", fillcolor="#fef8f4"] ;
624 -> 625 ;
626 [label="squared_error = 0.0\nsamples = 1\nvalue = 0.058", fillcolor="#fdf8f4"] ;
624 -> 626 ;
627 [label="squared_error = 0.0\nsamples = 1\nvalue = 0.06", fillcolor="#fdf7f3"] ;
623 -> 627 ;
628 [label="km <= 0.154\nsquared_error = 0.0\nsamples = 7\nvalue = 0.055", fillcolor="#fef8f4"] ;
622 -> 628 ;
629 [label="engine volume <= 0.194\nsquared_error = 0.0\nsamples = 2\nvalue = 0.05", fillcolor="#fef9f5"] ;
628 -> 629 ;
630 [label="squared_error = 0.0\nsamples = 1\nvalue = 0.054", fillcolor="#fef8f4"] ;
629 -> 630 ;
631 [label="squared_error = 0.0\nsamples = 1\nvalue = 0.046", fillcolor="#fef9f6"] ;
629 -> 631 ;
632 [label="km <= 0.157\nsquared_error = 0.0\nsamples = 5\nvalue = 0.057", fillcolor="#fef8f4"] ;
628 -> 632 ;
633 [label="squared_error = 0.0\nsamples = 1\nvalue = 0.061", fillcolor="#fdf7f3"] ;
632 -> 633 ;
634 [label="engine volume <= 0.194\nsquared_error = 0.0\nsamples = 4\nvalue = 0.055", fillcolor="#fef8f4"] ;
632 -> 634 ;
635 [label="squared_error = 0.0\nsamples = 1\nvalue = 0.057", fillcolor="#fef8f4"] ;
634 -> 635 ;
636 [label="km <= 0.158\nsquared_error = 0.0\nsamples = 3\nvalue = 0.055", fillcolor="#fef8f4"] ;
634 -> 636 ;
637 [label="squared_error = 0.0\nsamples = 1\nvalue = 0.056", fillcolor="#fef8f4"] ;
636 -> 637 ;
638 [label="horse power <= 0.103\nsquared_error = 0.0\nsamples = 2\nvalue = 0.054", fillcolor="#fef8f4"] ;
636 -> 638 ;
639 [label="squared_error = 0.0\nsamples = 1\nvalue = 0.055", fillcolor="#fef8f4"] ;
638 -> 639 ;
640 [label="squared_error = 0.0\nsamples = 1\nvalue = 0.054", fillcolor="#fef8f4"] ;
638 -> 640 ;
641 [label="current owner <= 2.5\nsquared_error = 0.0\nsamples = 11\nvalue = 0.052", fillcolor="#fef8f5"] ;
621 -> 641 ;
642 [label="current owner <= 1.5\nsquared_error = 0.0\nsamples = 5\nvalue = 0.054", fillcolor="#fef8f4"] ;
641 -> 642 ;
643 [label="squared_error = 0.0\nsamples = 1\nvalue = 0.053", fillcolor="#fef8f4"] ;
642 -> 643 ;
644 [label="km <= 0.179\nsquared_error = 0.0\nsamples = 4\nvalue = 0.055", fillcolor="#fef8f4"] ;
642 -> 644 ;
645 [label="km <= 0.166\nsquared_error = 0.0\nsamples = 3\nvalue = 0.055", fillcolor="#fef8f4"] ;
644 -> 645 ;
646 [label="squared_error = 0.0\nsamples = 1\nvalue = 0.054", fillcolor="#fef8f4"] ;
645 -> 646 ;
647 [label="km <= 0.169\nsquared_error = 0.0\nsamples = 2\nvalue = 0.055", fillcolor="#fef8f4"] ;
645 -> 647 ;
648 [label="squared_error = 0.0\nsamples = 1\nvalue = 0.055", fillcolor="#fef8f4"] ;
647 -> 648 ;
649 [label="squared_error = 0.0\nsamples = 1\nvalue = 0.055", fillcolor="#fef8f4"] ;
647 -> 649 ;
650 [label="squared_error = 0.0\nsamples = 1\nvalue = 0.057", fillcolor="#fef8f4"] ;
644 -> 650 ;
651 [label="km <= 0.171\nsquared_error = 0.0\nsamples = 6\nvalue = 0.05", fillcolor="#fef9f5"] ;
641 -> 651 ;
652 [label="current owner <= 3.5\nsquared_error = 0.0\nsamples = 3\nvalue = 0.047", fillcolor="#fef9f6"] ;
651 -> 652 ;
653 [label="squared_error = 0.0\nsamples = 1\nvalue = 0.05", fillcolor="#fef9f5"] ;
652 -> 653 ;
654 [label="km <= 0.164\nsquared_error = 0.0\nsamples = 2\nvalue = 0.046", fillcolor="#fef9f6"] ;
652 -> 654 ;
655 [label="squared_error = 0.0\nsamples = 1\nvalue = 0.046", fillcolor="#fef9f6"] ;
654 -> 655 ;
656 [label="squared_error = 0.0\nsamples = 1\nvalue = 0.046", fillcolor="#fef9f6"] ;
654 -> 656 ;
657 [label="km <= 0.187\nsquared_error = 0.0\nsamples = 3\nvalue = 0.052", fillcolor="#fef8f5"] ;
651 -> 657 ;
658 [label="km <= 0.179\nsquared_error = 0.0\nsamples = 2\nvalue = 0.051", fillcolor="#fef9f5"] ;
657 -> 658 ;
659 [label="squared_error = 0.0\nsamples = 1\nvalue = 0.051", fillcolor="#fef9f5"] ;
658 -> 659 ;
660 [label="squared_error = 0.0\nsamples = 1\nvalue = 0.049", fillcolor="#fef9f5"] ;
658 -> 660 ;
661 [label="squared_error = 0.0\nsamples = 1\nvalue = 0.055", fillcolor="#fef8f4"] ;
657 -> 661 ;
662 [label="km <= 0.176\nsquared_error = 0.0\nsamples = 41\nvalue = 0.057", fillcolor="#fef8f4"] ;
598 -> 662 ;
663 [label="km <= 0.175\nsquared_error = 0.0\nsamples = 31\nvalue = 0.058", fillcolor="#fdf8f4"] ;
662 -> 663 ;
664 [label="km <= 0.141\nsquared_error = 0.0\nsamples = 30\nvalue = 0.058", fillcolor="#fef8f4"] ;
663 -> 664 ;
665 [label="km <= 0.136\nsquared_error = 0.0\nsamples = 5\nvalue = 0.06", fillcolor="#fdf7f3"] ;
664 -> 665 ;
666 [label="horse power <= 0.08\nsquared_error = 0.0\nsamples = 2\nvalue = 0.057", fillcolor="#fef8f4"] ;
665 -> 666 ;
667 [label="squared_error = 0.0\nsamples = 1\nvalue = 0.058", fillcolor="#fdf8f3"] ;
666 -> 667 ;
668 [label="squared_error = 0.0\nsamples = 1\nvalue = 0.057", fillcolor="#fef8f4"] ;
666 -> 668 ;
669 [label="current owner <= 3.0\nsquared_error = 0.0\nsamples = 3\nvalue = 0.062", fillcolor="#fdf7f3"] ;
665 -> 669 ;
670 [label="squared_error = 0.0\nsamples = 1\nvalue = 0.062", fillcolor="#fdf7f3"] ;
669 -> 670 ;
671 [label="year <= 2.5\nsquared_error = 0.0\nsamples = 2\nvalue = 0.062", fillcolor="#fdf7f3"] ;
669 -> 671 ;
672 [label="squared_error = 0.0\nsamples = 1\nvalue = 0.062", fillcolor="#fdf7f3"] ;
671 -> 672 ;
673 [label="squared_error = 0.0\nsamples = 1\nvalue = 0.063", fillcolor="#fdf7f3"] ;
671 -> 673 ;
674 [label="year <= 3.5\nsquared_error = 0.0\nsamples = 25\nvalue = 0.057", fillcolor="#fef8f4"] ;
664 -> 674 ;
675 [label="km <= 0.144\nsquared_error = 0.0\nsamples = 16\nvalue = 0.056", fillcolor="#fef8f4"] ;
674 -> 675 ;
676 [label="km <= 0.142\nsquared_error = 0.0\nsamples = 2\nvalue = 0.053", fillcolor="#fef8f4"] ;
675 -> 676 ;
677 [label="squared_error = 0.0\nsamples = 1\nvalue = 0.055", fillcolor="#fef8f4"] ;
676 -> 677 ;
678 [label="squared_error = -0.0\nsamples = 1\nvalue = 0.052", fillcolor="#fef8f5"] ;
676 -> 678 ;
679 [label="km <= 0.17\nsquared_error = 0.0\nsamples = 14\nvalue = 0.056", fillcolor="#fef8f4"] ;
675 -> 679 ;
680 [label="km <= 0.168\nsquared_error = 0.0\nsamples = 12\nvalue = 0.056", fillcolor="#fef8f4"] ;
679 -> 680 ;
681 [label="km <= 0.147\nsquared_error = 0.0\nsamples = 11\nvalue = 0.056", fillcolor="#fef8f4"] ;
680 -> 681 ;
682 [label="km <= 0.145\nsquared_error = 0.0\nsamples = 3\nvalue = 0.057", fillcolor="#fef8f4"] ;
681 -> 682 ;
683 [label="km <= 0.145\nsquared_error = 0.0\nsamples = 2\nvalue = 0.057", fillcolor="#fef8f4"] ;
682 -> 683 ;
684 [label="squared_error = 0.0\nsamples = 1\nvalue = 0.057", fillcolor="#fef8f4"] ;
683 -> 684 ;
685 [label="squared_error = 0.0\nsamples = 1\nvalue = 0.057", fillcolor="#fef8f4"] ;
683 -> 685 ;
686 [label="squared_error = 0.0\nsamples = 1\nvalue = 0.058", fillcolor="#fef8f4"] ;
682 -> 686 ;
687 [label="km <= 0.15\nsquared_error = 0.0\nsamples = 8\nvalue = 0.055", fillcolor="#fef8f4"] ;
681 -> 687 ;
688 [label="squared_error = 0.0\nsamples = 1\nvalue = 0.052", fillcolor="#fef8f5"] ;
687 -> 688 ;
689 [label="km <= 0.153\nsquared_error = 0.0\nsamples = 7\nvalue = 0.055", fillcolor="#fef8f4"] ;
687 -> 689 ;
690 [label="squared_error = 0.0\nsamples = 1\nvalue = 0.057", fillcolor="#fef8f4"] ;
689 -> 690 ;
691 [label="km <= 0.165\nsquared_error = 0.0\nsamples = 6\nvalue = 0.055", fillcolor="#fef8f4"] ;
689 -> 691 ;
692 [label="current owner <= 2.5\nsquared_error = 0.0\nsamples = 5\nvalue = 0.055", fillcolor="#fef8f4"] ;
691 -> 692 ;
693 [label="km <= 0.161\nsquared_error = 0.0\nsamples = 3\nvalue = 0.056", fillcolor="#fef8f4"] ;
692 -> 693 ;
694 [label="squared_error = 0.0\nsamples = 2\nvalue = 0.056", fillcolor="#fef8f4"] ;
693 -> 694 ;
695 [label="squared_error = 0.0\nsamples = 1\nvalue = 0.055", fillcolor="#fef8f4"] ;
693 -> 695 ;
696 [label="km <= 0.159\nsquared_error = 0.0\nsamples = 2\nvalue = 0.053", fillcolor="#fef8f5"] ;
692 -> 696 ;
697 [label="squared_error = 0.0\nsamples = 1\nvalue = 0.053", fillcolor="#fef8f4"] ;
696 -> 697 ;
698 [label="squared_error = 0.0\nsamples = 1\nvalue = 0.052", fillcolor="#fef8f5"] ;
696 -> 698 ;
699 [label="squared_error = 0.0\nsamples = 1\nvalue = 0.057", fillcolor="#fef8f4"] ;
691 -> 699 ;
700 [label="squared_error = -0.0\nsamples = 1\nvalue = 0.067", fillcolor="#fdf7f2"] ;
680 -> 700 ;
701 [label="current owner <= 1.5\nsquared_error = 0.0\nsamples = 2\nvalue = 0.054", fillcolor="#fef8f4"] ;
679 -> 701 ;
702 [label="squared_error = 0.0\nsamples = 1\nvalue = 0.056", fillcolor="#fef8f4"] ;
701 -> 702 ;
703 [label="squared_error = 0.0\nsamples = 1\nvalue = 0.052", fillcolor="#fef8f5"] ;
701 -> 703 ;
704 [label="current owner <= 3.5\nsquared_error = 0.0\nsamples = 9\nvalue = 0.059", fillcolor="#fdf8f3"] ;
674 -> 704 ;
705 [label="km <= 0.156\nsquared_error = 0.0\nsamples = 2\nvalue = 0.067", fillcolor="#fdf7f2"] ;
704 -> 705 ;
706 [label="squared_error = 0.0\nsamples = 1\nvalue = 0.069", fillcolor="#fdf6f1"] ;
705 -> 706 ;
707 [label="squared_error = 0.0\nsamples = 1\nvalue = 0.064", fillcolor="#fdf7f2"] ;
705 -> 707 ;
708 [label="year <= 4.5\nsquared_error = 0.0\nsamples = 7\nvalue = 0.057", fillcolor="#fef8f4"] ;
704 -> 708 ;
709 [label="km <= 0.142\nsquared_error = 0.0\nsamples = 5\nvalue = 0.055", fillcolor="#fef8f4"] ;
708 -> 709 ;
710 [label="squared_error = 0.0\nsamples = 1\nvalue = 0.058", fillcolor="#fef8f4"] ;
709 -> 710 ;
711 [label="km <= 0.163\nsquared_error = 0.0\nsamples = 4\nvalue = 0.054", fillcolor="#fef8f4"] ;
709 -> 711 ;
712 [label="km <= 0.154\nsquared_error = 0.0\nsamples = 3\nvalue = 0.055", fillcolor="#fef8f4"] ;
711 -> 712 ;
713 [label="km <= 0.146\nsquared_error = 0.0\nsamples = 2\nvalue = 0.054", fillcolor="#fef8f4"] ;
712 -> 713 ;
714 [label="squared_error = 0.0\nsamples = 1\nvalue = 0.054", fillcolor="#fef8f4"] ;
713 -> 714 ;
715 [label="squared_error = 0.0\nsamples = 1\nvalue = 0.055", fillcolor="#fef8f4"] ;
713 -> 715 ;
716 [label="squared_error = 0.0\nsamples = 1\nvalue = 0.055", fillcolor="#fef8f4"] ;
712 -> 716 ;
717 [label="squared_error = -0.0\nsamples = 1\nvalue = 0.054", fillcolor="#fef8f4"] ;
711 -> 717 ;
718 [label="year <= 5.5\nsquared_error = 0.0\nsamples = 2\nvalue = 0.062", fillcolor="#fdf7f3"] ;
708 -> 718 ;
719 [label="squared_error = 0.0\nsamples = 1\nvalue = 0.066", fillcolor="#fdf7f2"] ;
718 -> 719 ;
720 [label="squared_error = 0.0\nsamples = 1\nvalue = 0.061", fillcolor="#fdf7f3"] ;
718 -> 720 ;
721 [label="squared_error = -0.0\nsamples = 1\nvalue = 0.064", fillcolor="#fdf7f2"] ;
663 -> 721 ;
722 [label="current owner <= 3.5\nsquared_error = 0.0\nsamples = 10\nvalue = 0.054", fillcolor="#fef8f4"] ;
662 -> 722 ;
723 [label="km <= 0.187\nsquared_error = 0.0\nsamples = 4\nvalue = 0.056", fillcolor="#fef8f4"] ;
722 -> 723 ;
724 [label="squared_error = 0.0\nsamples = 1\nvalue = 0.064", fillcolor="#fdf7f2"] ;
723 -> 724 ;
725 [label="horse power <= 0.08\nsquared_error = 0.0\nsamples = 3\nvalue = 0.054", fillcolor="#fef8f4"] ;
723 -> 725 ;
726 [label="squared_error = 0.0\nsamples = 1\nvalue = 0.056", fillcolor="#fef8f4"] ;
725 -> 726 ;
727 [label="current owner <= 1.5\nsquared_error = 0.0\nsamples = 2\nvalue = 0.053", fillcolor="#fef8f4"] ;
725 -> 727 ;
728 [label="squared_error = 0.0\nsamples = 1\nvalue = 0.053", fillcolor="#fef8f4"] ;
727 -> 728 ;
729 [label="squared_error = 0.0\nsamples = 1\nvalue = 0.054", fillcolor="#fef8f4"] ;
727 -> 729 ;
730 [label="km <= 0.177\nsquared_error = 0.0\nsamples = 6\nvalue = 0.053", fillcolor="#fef8f4"] ;
722 -> 730 ;
731 [label="km <= 0.176\nsquared_error = 0.0\nsamples = 2\nvalue = 0.052", fillcolor="#fef8f5"] ;
730 -> 731 ;
732 [label="squared_error = 0.0\nsamples = 1\nvalue = 0.052", fillcolor="#fef8f5"] ;
731 -> 732 ;
733 [label="squared_error = -0.0\nsamples = 1\nvalue = 0.052", fillcolor="#fef8f5"] ;
731 -> 733 ;
734 [label="km <= 0.193\nsquared_error = 0.0\nsamples = 4\nvalue = 0.054", fillcolor="#fef8f4"] ;
730 -> 734 ;
735 [label="year <= 2.5\nsquared_error = 0.0\nsamples = 3\nvalue = 0.055", fillcolor="#fef8f4"] ;
734 -> 735 ;
736 [label="squared_error = 0.0\nsamples = 1\nvalue = 0.054", fillcolor="#fef8f4"] ;
735 -> 736 ;
737 [label="km <= 0.185\nsquared_error = 0.0\nsamples = 2\nvalue = 0.055", fillcolor="#fef8f4"] ;
735 -> 737 ;
738 [label="squared_error = 0.0\nsamples = 1\nvalue = 0.055", fillcolor="#fef8f4"] ;
737 -> 738 ;
739 [label="squared_error = 0.0\nsamples = 1\nvalue = 0.055", fillcolor="#fef8f4"] ;
737 -> 739 ;
740 [label="squared_error = -0.0\nsamples = 1\nvalue = 0.053", fillcolor="#fef8f5"] ;
734 -> 740 ;
741 [label="km <= 0.202\nsquared_error = 0.0\nsamples = 7\nvalue = 0.061", fillcolor="#fdf7f3"] ;
597 -> 741 ;
742 [label="squared_error = 0.0\nsamples = 1\nvalue = 0.067", fillcolor="#fdf7f2"] ;
741 -> 742 ;
743 [label="km <= 0.204\nsquared_error = 0.0\nsamples = 6\nvalue = 0.057", fillcolor="#fef8f4"] ;
741 -> 743 ;
744 [label="horse power <= 0.106\nsquared_error = 0.0\nsamples = 3\nvalue = 0.052", fillcolor="#fef8f5"] ;
743 -> 744 ;
745 [label="squared_error = 0.0\nsamples = 1\nvalue = 0.053", fillcolor="#fef8f4"] ;
744 -> 745 ;
746 [label="km <= 0.203\nsquared_error = 0.0\nsamples = 2\nvalue = 0.051", fillcolor="#fef9f5"] ;
744 -> 746 ;
747 [label="squared_error = 0.0\nsamples = 1\nvalue = 0.051", fillcolor="#fef9f5"] ;
746 -> 747 ;
748 [label="squared_error = 0.0\nsamples = 1\nvalue = 0.052", fillcolor="#fef8f5"] ;
746 -> 748 ;
749 [label="km <= 0.205\nsquared_error = 0.0\nsamples = 3\nvalue = 0.062", fillcolor="#fdf7f3"] ;
743 -> 749 ;
750 [label="squared_error = 0.0\nsamples = 1\nvalue = 0.067", fillcolor="#fdf7f2"] ;
749 -> 750 ;
751 [label="horse power <= 0.073\nsquared_error = 0.0\nsamples = 2\nvalue = 0.06", fillcolor="#fdf7f3"] ;
749 -> 751 ;
752 [label="squared_error = 0.0\nsamples = 1\nvalue = 0.059", fillcolor="#fdf8f3"] ;
751 -> 752 ;
753 [label="squared_error = 0.0\nsamples = 1\nvalue = 0.061", fillcolor="#fdf7f3"] ;
751 -> 753 ;
754 [label="year <= 4.5\nsquared_error = 0.0\nsamples = 22\nvalue = 0.049", fillcolor="#fef9f5"] ;
538 -> 754 ;
755 [label="horse power <= 0.106\nsquared_error = 0.0\nsamples = 14\nvalue = 0.053", fillcolor="#fef8f5"] ;
754 -> 755 ;
756 [label="km <= 0.248\nsquared_error = 0.0\nsamples = 8\nvalue = 0.05", fillcolor="#fef9f5"] ;
755 -> 756 ;
757 [label="horse power <= 0.08\nsquared_error = 0.0\nsamples = 7\nvalue = 0.048", fillcolor="#fef9f5"] ;
756 -> 757 ;
758 [label="current owner <= 3.0\nsquared_error = 0.0\nsamples = 4\nvalue = 0.047", fillcolor="#fef9f6"] ;
757 -> 758 ;
759 [label="squared_error = 0.0\nsamples = 1\nvalue = 0.05", fillcolor="#fef9f5"] ;
758 -> 759 ;
760 [label="km <= 0.214\nsquared_error = 0.0\nsamples = 3\nvalue = 0.047", fillcolor="#fef9f6"] ;
758 -> 760 ;
761 [label="squared_error = 0.0\nsamples = 1\nvalue = 0.05", fillcolor="#fef9f5"] ;
760 -> 761 ;
762 [label="km <= 0.225\nsquared_error = 0.0\nsamples = 2\nvalue = 0.046", fillcolor="#fef9f6"] ;
760 -> 762 ;
763 [label="squared_error = 0.0\nsamples = 1\nvalue = 0.046", fillcolor="#fef9f6"] ;
762 -> 763 ;
764 [label="squared_error = 0.0\nsamples = 1\nvalue = 0.046", fillcolor="#fef9f6"] ;
762 -> 764 ;
765 [label="km <= 0.23\nsquared_error = 0.0\nsamples = 3\nvalue = 0.05", fillcolor="#fef9f5"] ;
757 -> 765 ;
766 [label="km <= 0.222\nsquared_error = 0.0\nsamples = 2\nvalue = 0.053", fillcolor="#fef8f5"] ;
765 -> 766 ;
767 [label="squared_error = 0.0\nsamples = 1\nvalue = 0.051", fillcolor="#fef9f5"] ;
766 -> 767 ;
768 [label="squared_error = 0.0\nsamples = 1\nvalue = 0.054", fillcolor="#fef8f4"] ;
766 -> 768 ;
769 [label="squared_error = -0.0\nsamples = 1\nvalue = 0.047", fillcolor="#fef9f6"] ;
765 -> 769 ;
770 [label="squared_error = -0.0\nsamples = 1\nvalue = 0.059", fillcolor="#fdf8f3"] ;
756 -> 770 ;
771 [label="km <= 0.229\nsquared_error = 0.0\nsamples = 6\nvalue = 0.055", fillcolor="#fef8f4"] ;
755 -> 771 ;
772 [label="km <= 0.215\nsquared_error = 0.0\nsamples = 4\nvalue = 0.057", fillcolor="#fef8f4"] ;
771 -> 772 ;
773 [label="squared_error = 0.0\nsamples = 1\nvalue = 0.053", fillcolor="#fef8f5"] ;
772 -> 773 ;
774 [label="km <= 0.22\nsquared_error = 0.0\nsamples = 3\nvalue = 0.057", fillcolor="#fef8f4"] ;
772 -> 774 ;
775 [label="squared_error = 0.0\nsamples = 1\nvalue = 0.058", fillcolor="#fdf8f4"] ;
774 -> 775 ;
776 [label="km <= 0.223\nsquared_error = 0.0\nsamples = 2\nvalue = 0.057", fillcolor="#fef8f4"] ;
774 -> 776 ;
777 [label="squared_error = 0.0\nsamples = 1\nvalue = 0.056", fillcolor="#fef8f4"] ;
776 -> 777 ;
778 [label="squared_error = -0.0\nsamples = 1\nvalue = 0.057", fillcolor="#fef8f4"] ;
776 -> 778 ;
779 [label="km <= 0.24\nsquared_error = 0.0\nsamples = 2\nvalue = 0.052", fillcolor="#fef8f5"] ;
771 -> 779 ;
780 [label="squared_error = -0.0\nsamples = 1\nvalue = 0.052", fillcolor="#fef8f5"] ;
779 -> 780 ;
781 [label="squared_error = -0.0\nsamples = 1\nvalue = 0.051", fillcolor="#fef9f5"] ;
779 -> 781 ;
782 [label="km <= 0.221\nsquared_error = 0.0\nsamples = 8\nvalue = 0.043", fillcolor="#fefaf6"] ;
754 -> 782 ;
783 [label="current owner <= 1.5\nsquared_error = 0.0\nsamples = 4\nvalue = 0.04", fillcolor="#fefaf7"] ;
782 -> 783 ;
784 [label="squared_error = 0.0\nsamples = 1\nvalue = 0.035", fillcolor="#fefbf8"] ;
783 -> 784 ;
785 [label="current owner <= 3.0\nsquared_error = 0.0\nsamples = 3\nvalue = 0.044", fillcolor="#fef9f6"] ;
783 -> 785 ;
786 [label="squared_error = 0.0\nsamples = 1\nvalue = 0.051", fillcolor="#fef9f5"] ;
785 -> 786 ;
787 [label="km <= 0.208\nsquared_error = 0.0\nsamples = 2\nvalue = 0.04", fillcolor="#fefaf7"] ;
785 -> 787 ;
788 [label="squared_error = 0.0\nsamples = 1\nvalue = 0.04", fillcolor="#fefaf7"] ;
787 -> 788 ;
789 [label="squared_error = 0.0\nsamples = 1\nvalue = 0.04", fillcolor="#fefaf7"] ;
787 -> 789 ;
790 [label="year <= 6.5\nsquared_error = 0.0\nsamples = 4\nvalue = 0.047", fillcolor="#fef9f6"] ;
782 -> 790 ;
791 [label="engine volume <= 0.199\nsquared_error = 0.0\nsamples = 3\nvalue = 0.049", fillcolor="#fef9f5"] ;
790 -> 791 ;
792 [label="km <= 0.229\nsquared_error = 0.0\nsamples = 2\nvalue = 0.048", fillcolor="#fef9f6"] ;
791 -> 792 ;
793 [label="squared_error = 0.0\nsamples = 1\nvalue = 0.05", fillcolor="#fef9f5"] ;
792 -> 793 ;
794 [label="squared_error = -0.0\nsamples = 1\nvalue = 0.047", fillcolor="#fef9f6"] ;
792 -> 794 ;
795 [label="squared_error = -0.0\nsamples = 1\nvalue = 0.055", fillcolor="#fef8f4"] ;
791 -> 795 ;
796 [label="squared_error = -0.0\nsamples = 1\nvalue = 0.04", fillcolor="#fefaf7"] ;
790 -> 796 ;
797 [label="km <= 0.201\nsquared_error = 0.0\nsamples = 24\nvalue = 0.068", fillcolor="#fdf6f2"] ;
533 -> 797 ;
798 [label="year <= 3.5\nsquared_error = 0.0\nsamples = 14\nvalue = 0.075", fillcolor="#fdf6f0"] ;
797 -> 798 ;
799 [label="km <= 0.173\nsquared_error = 0.0\nsamples = 7\nvalue = 0.078", fillcolor="#fdf5f0"] ;
798 -> 799 ;
800 [label="current owner <= 3.5\nsquared_error = 0.0\nsamples = 5\nvalue = 0.08", fillcolor="#fdf5ef"] ;
799 -> 800 ;
801 [label="km <= 0.16\nsquared_error = 0.0\nsamples = 3\nvalue = 0.081", fillcolor="#fdf5ef"] ;
800 -> 801 ;
802 [label="km <= 0.142\nsquared_error = 0.0\nsamples = 2\nvalue = 0.082", fillcolor="#fdf5ef"] ;
801 -> 802 ;
803 [label="squared_error = 0.0\nsamples = 1\nvalue = 0.082", fillcolor="#fdf5ef"] ;
802 -> 803 ;
804 [label="squared_error = -0.0\nsamples = 1\nvalue = 0.083", fillcolor="#fdf5ef"] ;
802 -> 804 ;
805 [label="squared_error = -0.0\nsamples = 1\nvalue = 0.079", fillcolor="#fdf5ef"] ;
801 -> 805 ;
806 [label="km <= 0.144\nsquared_error = 0.0\nsamples = 2\nvalue = 0.077", fillcolor="#fdf5f0"] ;
800 -> 806 ;
807 [label="squared_error = 0.0\nsamples = 1\nvalue = 0.078", fillcolor="#fdf5f0"] ;
806 -> 807 ;
808 [label="squared_error = 0.0\nsamples = 1\nvalue = 0.077", fillcolor="#fdf5f0"] ;
806 -> 808 ;
809 [label="km <= 0.189\nsquared_error = 0.0\nsamples = 2\nvalue = 0.074", fillcolor="#fdf6f0"] ;
799 -> 809 ;
810 [label="squared_error = 0.0\nsamples = 1\nvalue = 0.075", fillcolor="#fdf6f0"] ;
809 -> 810 ;
811 [label="squared_error = -0.0\nsamples = 1\nvalue = 0.074", fillcolor="#fdf6f0"] ;
809 -> 811 ;
812 [label="km <= 0.146\nsquared_error = 0.0\nsamples = 7\nvalue = 0.072", fillcolor="#fdf6f1"] ;
798 -> 812 ;
813 [label="current owner <= 3.0\nsquared_error = 0.0\nsamples = 3\nvalue = 0.066", fillcolor="#fdf7f2"] ;
812 -> 813 ;
814 [label="squared_error = 0.0\nsamples = 2\nvalue = 0.066", fillcolor="#fdf7f2"] ;
813 -> 814 ;
815 [label="squared_error = -0.0\nsamples = 1\nvalue = 0.066", fillcolor="#fdf7f2"] ;
813 -> 815 ;
816 [label="current owner <= 2.5\nsquared_error = 0.0\nsamples = 4\nvalue = 0.075", fillcolor="#fdf6f0"] ;
812 -> 816 ;
817 [label="squared_error = 0.0\nsamples = 1\nvalue = 0.07", fillcolor="#fdf6f1"] ;
816 -> 817 ;
818 [label="km <= 0.193\nsquared_error = 0.0\nsamples = 3\nvalue = 0.078", fillcolor="#fdf5f0"] ;
816 -> 818 ;
819 [label="km <= 0.171\nsquared_error = 0.0\nsamples = 2\nvalue = 0.078", fillcolor="#fdf5ef"] ;
818 -> 819 ;
820 [label="squared_error = 0.0\nsamples = 1\nvalue = 0.078", fillcolor="#fdf5f0"] ;
819 -> 820 ;
821 [label="squared_error = -0.0\nsamples = 1\nvalue = 0.079", fillcolor="#fdf5ef"] ;
819 -> 821 ;
822 [label="squared_error = 0.0\nsamples = 1\nvalue = 0.078", fillcolor="#fdf5f0"] ;
818 -> 822 ;
823 [label="year <= 3.5\nsquared_error = 0.0\nsamples = 10\nvalue = 0.061", fillcolor="#fdf7f3"] ;
797 -> 823 ;
824 [label="km <= 0.226\nsquared_error = 0.0\nsamples = 3\nvalue = 0.072", fillcolor="#fdf6f1"] ;
823 -> 824 ;
825 [label="squared_error = 0.0\nsamples = 1\nvalue = 0.077", fillcolor="#fdf5f0"] ;
824 -> 825 ;
826 [label="current owner <= 1.5\nsquared_error = 0.0\nsamples = 2\nvalue = 0.066", fillcolor="#fdf7f2"] ;
824 -> 826 ;
827 [label="squared_error = 0.0\nsamples = 1\nvalue = 0.064", fillcolor="#fdf7f2"] ;
826 -> 827 ;
828 [label="squared_error = -0.0\nsamples = 1\nvalue = 0.069", fillcolor="#fdf6f1"] ;
826 -> 828 ;
829 [label="km <= 0.241\nsquared_error = 0.0\nsamples = 7\nvalue = 0.058", fillcolor="#fdf8f3"] ;
823 -> 829 ;
830 [label="current owner <= 3.0\nsquared_error = 0.0\nsamples = 4\nvalue = 0.061", fillcolor="#fdf7f3"] ;
829 -> 830 ;
831 [label="km <= 0.223\nsquared_error = 0.0\nsamples = 3\nvalue = 0.06", fillcolor="#fdf7f3"] ;
830 -> 831 ;
832 [label="km <= 0.211\nsquared_error = 0.0\nsamples = 2\nvalue = 0.059", fillcolor="#fdf8f3"] ;
831 -> 832 ;
833 [label="squared_error = 0.0\nsamples = 1\nvalue = 0.059", fillcolor="#fdf8f3"] ;
832 -> 833 ;
834 [label="squared_error = 0.0\nsamples = 1\nvalue = 0.059", fillcolor="#fdf8f3"] ;
832 -> 834 ;
835 [label="squared_error = -0.0\nsamples = 1\nvalue = 0.064", fillcolor="#fdf7f2"] ;
831 -> 835 ;
836 [label="squared_error = 0.0\nsamples = 1\nvalue = 0.065", fillcolor="#fdf7f2"] ;
830 -> 836 ;
837 [label="km <= 0.26\nsquared_error = 0.0\nsamples = 3\nvalue = 0.057", fillcolor="#fef8f4"] ;
829 -> 837 ;
838 [label="current owner <= 2.5\nsquared_error = 0.0\nsamples = 2\nvalue = 0.057", fillcolor="#fef8f4"] ;
837 -> 838 ;
839 [label="squared_error = 0.0\nsamples = 1\nvalue = 0.057", fillcolor="#fef8f4"] ;
838 -> 839 ;
840 [label="squared_error = 0.0\nsamples = 1\nvalue = 0.058", fillcolor="#fdf8f3"] ;
838 -> 840 ;
841 [label="squared_error = 0.0\nsamples = 1\nvalue = 0.056", fillcolor="#fef8f4"] ;
837 -> 841 ;
842 [label="year <= 3.5\nsquared_error = 0.0\nsamples = 36\nvalue = 0.05", fillcolor="#fef9f5"] ;
532 -> 842 ;
843 [label="km <= 0.138\nsquared_error = 0.0\nsamples = 24\nvalue = 0.047", fillcolor="#fef9f6"] ;
842 -> 843 ;
844 [label="km <= 0.133\nsquared_error = 0.0\nsamples = 2\nvalue = 0.058", fillcolor="#fef8f4"] ;
843 -> 844 ;
845 [label="squared_error = 0.0\nsamples = 1\nvalue = 0.057", fillcolor="#fef8f4"] ;
844 -> 845 ;
846 [label="squared_error = 0.0\nsamples = 1\nvalue = 0.058", fillcolor="#fdf8f4"] ;
844 -> 846 ;
847 [label="current owner <= 4.5\nsquared_error = 0.0\nsamples = 22\nvalue = 0.045", fillcolor="#fef9f6"] ;
843 -> 847 ;
848 [label="km <= 0.21\nsquared_error = 0.0\nsamples = 21\nvalue = 0.045", fillcolor="#fef9f6"] ;
847 -> 848 ;
849 [label="km <= 0.162\nsquared_error = 0.0\nsamples = 19\nvalue = 0.045", fillcolor="#fef9f6"] ;
848 -> 849 ;
850 [label="km <= 0.161\nsquared_error = 0.0\nsamples = 12\nvalue = 0.046", fillcolor="#fef9f6"] ;
849 -> 850 ;
851 [label="km <= 0.15\nsquared_error = 0.0\nsamples = 11\nvalue = 0.045", fillcolor="#fef9f6"] ;
850 -> 851 ;
852 [label="km <= 0.141\nsquared_error = 0.0\nsamples = 8\nvalue = 0.046", fillcolor="#fef9f6"] ;
851 -> 852 ;
853 [label="squared_error = 0.0\nsamples = 1\nvalue = 0.047", fillcolor="#fef9f6"] ;
852 -> 853 ;
854 [label="squared_error = -0.0\nsamples = 7\nvalue = 0.046", fillcolor="#fef9f6"] ;
852 -> 854 ;
855 [label="squared_error = 0.0\nsamples = 3\nvalue = 0.045", fillcolor="#fef9f6"] ;
851 -> 855 ;
856 [label="squared_error = 0.0\nsamples = 1\nvalue = 0.051", fillcolor="#fef9f5"] ;
850 -> 856 ;
857 [label="squared_error = 0.0\nsamples = 7\nvalue = 0.045", fillcolor="#fef9f6"] ;
849 -> 857 ;
858 [label="squared_error = 0.0\nsamples = 2\nvalue = 0.043", fillcolor="#fefaf6"] ;
848 -> 858 ;
859 [label="squared_error = -0.0\nsamples = 1\nvalue = 0.056", fillcolor="#fef8f4"] ;
847 -> 859 ;
860 [label="km <= 0.201\nsquared_error = 0.0\nsamples = 12\nvalue = 0.055", fillcolor="#fef8f4"] ;
842 -> 860 ;
861 [label="year <= 4.5\nsquared_error = 0.0\nsamples = 5\nvalue = 0.058", fillcolor="#fdf8f3"] ;
860 -> 861 ;
862 [label="current owner <= 2.5\nsquared_error = 0.0\nsamples = 3\nvalue = 0.06", fillcolor="#fdf7f3"] ;
861 -> 862 ;
863 [label="squared_error = 0.0\nsamples = 1\nvalue = 0.058", fillcolor="#fdf8f3"] ;
862 -> 863 ;
864 [label="current owner <= 4.5\nsquared_error = 0.0\nsamples = 2\nvalue = 0.06", fillcolor="#fdf7f3"] ;
862 -> 864 ;
865 [label="squared_error = 0.0\nsamples = 1\nvalue = 0.06", fillcolor="#fdf7f3"] ;
864 -> 865 ;
866 [label="squared_error = 0.0\nsamples = 1\nvalue = 0.06", fillcolor="#fdf7f3"] ;
864 -> 866 ;
867 [label="km <= 0.18\nsquared_error = 0.0\nsamples = 2\nvalue = 0.054", fillcolor="#fef8f4"] ;
861 -> 867 ;
868 [label="squared_error = 0.0\nsamples = 1\nvalue = 0.054", fillcolor="#fef8f4"] ;
867 -> 868 ;
869 [label="squared_error = -0.0\nsamples = 1\nvalue = 0.056", fillcolor="#fef8f4"] ;
867 -> 869 ;
870 [label="km <= 0.25\nsquared_error = 0.0\nsamples = 7\nvalue = 0.052", fillcolor="#fef8f5"] ;
860 -> 870 ;
871 [label="current owner <= 3.0\nsquared_error = 0.0\nsamples = 5\nvalue = 0.054", fillcolor="#fef8f4"] ;
870 -> 871 ;
872 [label="km <= 0.235\nsquared_error = 0.0\nsamples = 2\nvalue = 0.052", fillcolor="#fef8f5"] ;
871 -> 872 ;
873 [label="squared_error = 0.0\nsamples = 1\nvalue = 0.051", fillcolor="#fef9f5"] ;
872 -> 873 ;
874 [label="squared_error = 0.0\nsamples = 1\nvalue = 0.054", fillcolor="#fef8f4"] ;
872 -> 874 ;
875 [label="year <= 4.5\nsquared_error = 0.0\nsamples = 3\nvalue = 0.055", fillcolor="#fef8f4"] ;
871 -> 875 ;
876 [label="squared_error = 0.0\nsamples = 1\nvalue = 0.055", fillcolor="#fef8f4"] ;
875 -> 876 ;
877 [label="squared_error = 0.0\nsamples = 2\nvalue = 0.055", fillcolor="#fef8f4"] ;
875 -> 877 ;
878 [label="km <= 0.258\nsquared_error = 0.0\nsamples = 2\nvalue = 0.049", fillcolor="#fef9f5"] ;
870 -> 878 ;
879 [label="squared_error = 0.0\nsamples = 1\nvalue = 0.045", fillcolor="#fef9f6"] ;
878 -> 879 ;
880 [label="squared_error = -0.0\nsamples = 1\nvalue = 0.052", fillcolor="#fef8f5"] ;
878 -> 880 ;
881 [label="year <= 6.0\nsquared_error = 0.0\nsamples = 4\nvalue = 0.08", fillcolor="#fdf5ef"] ;
531 -> 881 ;
882 [label="year <= 4.5\nsquared_error = 0.0\nsamples = 3\nvalue = 0.092", fillcolor="#fdf3ed"] ;
881 -> 882 ;
883 [label="squared_error = 0.0\nsamples = 1\nvalue = 0.096", fillcolor="#fdf3ec"] ;
882 -> 883 ;
884 [label="km <= 0.179\nsquared_error = 0.0\nsamples = 2\nvalue = 0.088", fillcolor="#fdf4ee"] ;
882 -> 884 ;
885 [label="squared_error = 0.0\nsamples = 1\nvalue = 0.089", fillcolor="#fdf4ed"] ;
884 -> 885 ;
886 [label="squared_error = 0.0\nsamples = 1\nvalue = 0.087", fillcolor="#fdf4ee"] ;
884 -> 886 ;
887 [label="squared_error = -0.0\nsamples = 1\nvalue = 0.056", fillcolor="#fef8f4"] ;
881 -> 887 ;
888 [label="horse power <= 0.073\nsquared_error = 0.0\nsamples = 33\nvalue = 0.045", fillcolor="#fef9f6"] ;
530 -> 888 ;
889 [label="km <= 0.149\nsquared_error = 0.0\nsamples = 3\nvalue = 0.022", fillcolor="#fefcfb"] ;
888 -> 889 ;
890 [label="squared_error = 0.0\nsamples = 1\nvalue = 0.025", fillcolor="#fefcfa"] ;
889 -> 890 ;
891 [label="km <= 0.222\nsquared_error = 0.0\nsamples = 2\nvalue = 0.019", fillcolor="#fefdfb"] ;
889 -> 891 ;
892 [label="squared_error = 0.0\nsamples = 1\nvalue = 0.02", fillcolor="#fefcfb"] ;
891 -> 892 ;
893 [label="squared_error = -0.0\nsamples = 1\nvalue = 0.017", fillcolor="#fffdfc"] ;
891 -> 893 ;
894 [label="horse power <= 0.141\nsquared_error = 0.0\nsamples = 30\nvalue = 0.047", fillcolor="#fef9f6"] ;
888 -> 894 ;
895 [label="horse power <= 0.133\nsquared_error = 0.0\nsamples = 28\nvalue = 0.049", fillcolor="#fef9f5"] ;
894 -> 895 ;
896 [label="horse power <= 0.078\nsquared_error = 0.0\nsamples = 25\nvalue = 0.047", fillcolor="#fef9f6"] ;
895 -> 896 ;
897 [label="km <= 0.12\nsquared_error = 0.0\nsamples = 5\nvalue = 0.06", fillcolor="#fdf7f3"] ;
896 -> 897 ;
898 [label="squared_error = 0.0\nsamples = 1\nvalue = 0.057", fillcolor="#fef8f4"] ;
897 -> 898 ;
899 [label="year <= 5.5\nsquared_error = 0.0\nsamples = 4\nvalue = 0.061", fillcolor="#fdf7f3"] ;
897 -> 899 ;
900 [label="km <= 0.14\nsquared_error = 0.0\nsamples = 2\nvalue = 0.064", fillcolor="#fdf7f2"] ;
899 -> 900 ;
901 [label="squared_error = 0.0\nsamples = 1\nvalue = 0.065", fillcolor="#fdf7f2"] ;
900 -> 901 ;
902 [label="squared_error = -0.0\nsamples = 1\nvalue = 0.064", fillcolor="#fdf7f2"] ;
900 -> 902 ;
903 [label="current owner <= 2.0\nsquared_error = 0.0\nsamples = 2\nvalue = 0.058", fillcolor="#fdf8f4"] ;
899 -> 903 ;
904 [label="squared_error = 0.0\nsamples = 1\nvalue = 0.06", fillcolor="#fdf7f3"] ;
903 -> 904 ;
905 [label="squared_error = 0.0\nsamples = 1\nvalue = 0.054", fillcolor="#fef8f4"] ;
903 -> 905 ;
906 [label="year <= 8.5\nsquared_error = 0.0\nsamples = 20\nvalue = 0.044", fillcolor="#fef9f6"] ;
896 -> 906 ;
907 [label="year <= 4.5\nsquared_error = 0.0\nsamples = 18\nvalue = 0.046", fillcolor="#fef9f6"] ;
906 -> 907 ;
908 [label="horse power <= 0.106\nsquared_error = 0.0\nsamples = 2\nvalue = 0.059", fillcolor="#fdf8f3"] ;
907 -> 908 ;
909 [label="squared_error = 0.0\nsamples = 1\nvalue = 0.056", fillcolor="#fef8f4"] ;
908 -> 909 ;
910 [label="squared_error = -0.0\nsamples = 1\nvalue = 0.063", fillcolor="#fdf7f3"] ;
908 -> 910 ;
911 [label="current owner <= 4.0\nsquared_error = 0.0\nsamples = 16\nvalue = 0.045", fillcolor="#fef9f6"] ;
907 -> 911 ;
912 [label="km <= 0.177\nsquared_error = 0.0\nsamples = 6\nvalue = 0.041", fillcolor="#fefaf7"] ;
911 -> 912 ;
913 [label="km <= 0.13\nsquared_error = 0.0\nsamples = 3\nvalue = 0.037", fillcolor="#fefaf8"] ;
912 -> 913 ;
914 [label="squared_error = 0.0\nsamples = 1\nvalue = 0.041", fillcolor="#fefaf7"] ;
913 -> 914 ;
915 [label="hand <= 0.357\nsquared_error = 0.0\nsamples = 2\nvalue = 0.035", fillcolor="#fefbf8"] ;
913 -> 915 ;
916 [label="squared_error = 0.0\nsamples = 1\nvalue = 0.035", fillcolor="#fefbf8"] ;
915 -> 916 ;
917 [label="squared_error = 0.0\nsamples = 1\nvalue = 0.034", fillcolor="#fefbf8"] ;
915 -> 917 ;
918 [label="horse power <= 0.092\nsquared_error = 0.0\nsamples = 3\nvalue = 0.044", fillcolor="#fef9f6"] ;
912 -> 918 ;
919 [label="squared_error = 0.0\nsamples = 1\nvalue = 0.044", fillcolor="#fef9f6"] ;
918 -> 919 ;
920 [label="squared_error = -0.0\nsamples = 2\nvalue = 0.043", fillcolor="#fefaf6"] ;
918 -> 920 ;
921 [label="km <= 0.184\nsquared_error = 0.0\nsamples = 10\nvalue = 0.047", fillcolor="#fef9f6"] ;
911 -> 921 ;
922 [label="horse power <= 0.094\nsquared_error = 0.0\nsamples = 7\nvalue = 0.049", fillcolor="#fef9f5"] ;
921 -> 922 ;
923 [label="squared_error = 0.0\nsamples = 1\nvalue = 0.038", fillcolor="#fefaf7"] ;
922 -> 923 ;
924 [label="year <= 6.5\nsquared_error = 0.0\nsamples = 6\nvalue = 0.05", fillcolor="#fef9f5"] ;
922 -> 924 ;
925 [label="year <= 5.5\nsquared_error = 0.0\nsamples = 3\nvalue = 0.053", fillcolor="#fef8f5"] ;
924 -> 925 ;
926 [label="squared_error = 0.0\nsamples = 1\nvalue = 0.052", fillcolor="#fef8f5"] ;
925 -> 926 ;
927 [label="km <= 0.154\nsquared_error = 0.0\nsamples = 2\nvalue = 0.054", fillcolor="#fef8f4"] ;
925 -> 927 ;
928 [label="squared_error = 0.0\nsamples = 1\nvalue = 0.055", fillcolor="#fef8f4"] ;
927 -> 928 ;
929 [label="squared_error = 0.0\nsamples = 1\nvalue = 0.054", fillcolor="#fef8f4"] ;
927 -> 929 ;
930 [label="engine volume <= 0.208\nsquared_error = 0.0\nsamples = 3\nvalue = 0.048", fillcolor="#fef9f6"] ;
924 -> 930 ;
931 [label="squared_error = 0.0\nsamples = 1\nvalue = 0.055", fillcolor="#fef8f4"] ;
930 -> 931 ;
932 [label="engine volume <= 0.225\nsquared_error = 0.0\nsamples = 2\nvalue = 0.046", fillcolor="#fef9f6"] ;
930 -> 932 ;
933 [label="squared_error = 0.0\nsamples = 1\nvalue = 0.044", fillcolor="#fef9f6"] ;
932 -> 933 ;
934 [label="squared_error = -0.0\nsamples = 1\nvalue = 0.047", fillcolor="#fef9f6"] ;
932 -> 934 ;
935 [label="year <= 5.5\nsquared_error = 0.0\nsamples = 3\nvalue = 0.042", fillcolor="#fefaf7"] ;
921 -> 935 ;
936 [label="squared_error = 0.0\nsamples = 1\nvalue = 0.037", fillcolor="#fefaf8"] ;
935 -> 936 ;
937 [label="horse power <= 0.104\nsquared_error = 0.0\nsamples = 2\nvalue = 0.046", fillcolor="#fef9f6"] ;
935 -> 937 ;
938 [label="squared_error = 0.0\nsamples = 1\nvalue = 0.044", fillcolor="#fef9f6"] ;
937 -> 938 ;
939 [label="squared_error = 0.0\nsamples = 1\nvalue = 0.048", fillcolor="#fef9f6"] ;
937 -> 939 ;
940 [label="km <= 0.248\nsquared_error = 0.0\nsamples = 2\nvalue = 0.031", fillcolor="#fefbf9"] ;
906 -> 940 ;
941 [label="squared_error = 0.0\nsamples = 1\nvalue = 0.034", fillcolor="#fefbf8"] ;
940 -> 941 ;
942 [label="squared_error = -0.0\nsamples = 1\nvalue = 0.028", fillcolor="#fefbf9"] ;
940 -> 942 ;
943 [label="km <= 0.198\nsquared_error = 0.0\nsamples = 3\nvalue = 0.073", fillcolor="#fdf6f0"] ;
895 -> 943 ;
944 [label="year <= 5.5\nsquared_error = 0.0\nsamples = 2\nvalue = 0.079", fillcolor="#fdf5ef"] ;
943 -> 944 ;
